{"layers":[{"type":"dense","input":{"v":1,"dim":[149,5],"data":[1.0,7.7,2.6,6.9,2.3,1.0,5.1,3.4,1.5,0.2,1.0,6.4,2.8,5.6,2.1,1.0,6.2,2.9,4.3,1.3,1.0,6.3,2.5,5.0,1.9,1.0,6.7,3.0,5.0,1.7,1.0,6.8,2.8,4.8,1.4,1.0,5.4,3.9,1.3,0.4,1.0,5.6,3.0,4.5,1.5,1.0,5.1,2.5,3.0,1.1,1.0,5.0,3.4,1.5,0.2,1.0,7.9,3.8,6.4,2.0,1.0,6.9,3.1,5.1,2.3,1.0,4.7,3.2,1.6,0.2,1.0,5.0,3.3,1.4,0.2,1.0,6.2,2.8,4.8,1.8,1.0,5.4,3.4,1.7,0.2,1.0,6.8,3.2,5.9,2.3,1.0,6.1,2.8,4.7,1.2,1.0,4.9,3.1,1.5,0.1,1.0,6.7,3.3,5.7,2.1,1.0,5.3,3.7,1.5,0.2,1.0,4.4,3.0,1.3,0.2,1.0,5.5,2.3,4.0,1.3,1.0,6.4,2.7,5.3,1.9,1.0,6.1,2.8,4.0,1.3,1.0,6.0,2.7,5.1,1.6,1.0,7.0,3.2,4.7,1.4,1.0,5.8,2.7,5.1,1.9,1.0,7.1,3.0,5.9,2.1,1.0,5.0,3.5,1.6,0.6,1.0,6.1,2.6,5.6,1.4,1.0,6.4,2.9,4.3,1.3,1.0,5.1,3.8,1.5,0.3,1.0,4.4,3.2,1.3,0.2,1.0,6.3,3.4,5.6,2.4,1.0,5.2,3.5,1.5,0.2,1.0,6.9,3.1,4.9,1.5,1.0,4.6,3.6,1.0,0.2,1.0,4.8,3.0,1.4,0.1,1.0,6.6,3.0,4.4,1.4,1.0,5.5,2.5,4.0,1.3,1.0,5.1,3.3,1.7,0.5,1.0,4.9,2.5,4.5,1.7,1.0,5.1,3.7,1.5,0.4,1.0,4.8,3.0,1.4,0.3,1.0,6.3,2.9,5.6,1.8,1.0,6.1,2.9,4.7,1.4,1.0,5.2,4.1,1.5,0.1,1.0,4.4,2.9,1.4,0.2,1.0,6.7,2.5,5.8,1.8,1.0,5.2,2.7,3.9,1.4,1.0,6.3,2.7,4.9,1.8,1.0,5.0,3.4,1.6,0.4,1.0,5.7,2.5,5.0,2.0,1.0,6.4,3.2,4.5,1.5,1.0,4.9,3.1,1.5,0.1,1.0,5.4,3.7,1.5,0.2,1.0,5.7,2.6,3.5,1.0,1.0,5.0,3.5,1.3,0.3,1.0,5.4,3.9,1.7,0.4,1.0,7.2,3.6,6.1,2.5,1.0,5.7,2.8,4.5,1.3,1.0,4.6,3.1,1.5,0.2,1.0,7.6,3.0,6.6,2.1,1.0,7.3,2.9,6.3,1.8,1.0,5.6,2.7,4.2,1.3,1.0,6.5,3.0,5.5,1.8,1.0,6.5,2.8,4.6,1.5,1.0,5.0,2.0,3.5,1.0,1.0,6.4,2.8,5.6,2.2,1.0,5.5,4.2,1.4,0.2,1.0,4.3,3.0,1.1,0.1,1.0,6.7,3.0,5.2,2.3,1.0,7.7,3.0,6.1,2.3,1.0,6.1,3.0,4.9,1.8,1.0,6.5,3.0,5.2,2.0,1.0,6.2,2.2,4.5,1.5,1.0,4.6,3.4,1.4,0.3,1.0,5.4,3.4,1.5,0.4,1.0,5.9,3.0,4.2,1.5,1.0,7.2,3.0,5.8,1.6,1.0,4.9,2.4,3.3,1.0,1.0,5.1,3.8,1.6,0.2,1.0,5.5,3.5,1.3,0.2,1.0,5.5,2.4,3.8,1.1,1.0,5.8,2.7,4.1,1.0,1.0,4.8,3.1,1.6,0.2,1.0,5.0,3.0,1.6,0.2,1.0,6.7,3.1,5.6,2.4,1.0,6.8,3.0,5.5,2.1,1.0,6.3,3.3,6.0,2.5,1.0,7.2,3.2,6.0,1.8,1.0,5.6,2.5,3.9,1.1,1.0,6.0,3.0,4.8,1.8,1.0,7.7,3.8,6.7,2.2,1.0,6.6,2.9,4.6,1.3,1.0,6.3,2.3,4.4,1.3,1.0,4.8,3.4,1.9,0.2,1.0,5.1,3.8,1.9,0.4,1.0,5.7,2.9,4.2,1.3,1.0,4.5,2.3,1.3,0.3,1.0,6.0,2.2,5.0,1.5,1.0,6.7,3.1,4.4,1.4,1.0,6.4,3.1,5.5,1.8,1.0,6.0,3.4,4.5,1.6,1.0,5.5,2.4,3.7,1.0,1.0,5.8,2.6,4.0,1.2,1.0,4.6,3.2,1.4,0.2,1.0,7.4,2.8,6.1,1.9,1.0,6.5,3.0,5.8,2.2,1.0,6.3,2.8,5.1,1.5,1.0,5.8,2.7,5.1,1.9,1.0,6.7,3.3,5.7,2.5,1.0,4.9,3.1,1.5,0.1,1.0,5.8,2.8,5.1,2.4,1.0,5.8,2.7,3.9,1.2,1.0,5.4,3.0,4.5,1.5,1.0,5.1,3.5,1.4,0.2,1.0,5.5,2.6,4.4,1.2,1.0,6.5,3.2,5.1,2.0,1.0,5.9,3.2,4.8,1.8,1.0,6.1,3.0,4.6,1.4,1.0,5.1,3.5,1.4,0.3,1.0,6.9,3.2,5.7,2.3,1.0,5.7,3.8,1.7,0.3,1.0,5.7,4.4,1.5,0.4,1.0,5.0,3.6,1.4,0.2,1.0,4.9,3.0,1.4,0.2,1.0,7.7,2.8,6.7,2.0,1.0,6.3,2.5,4.9,1.5,1.0,5.2,3.4,1.4,0.2,1.0,5.0,2.3,3.3,1.0,1.0,6.0,2.9,4.5,1.5,1.0,6.3,3.3,4.7,1.6,1.0,6.7,3.1,4.7,1.5,1.0,5.6,3.0,4.1,1.3,1.0,5.6,2.9,3.6,1.3,1.0,5.7,3.0,4.2,1.2,1.0,4.8,3.4,1.6,0.2,1.0,6.0,2.2,4.0,1.0,1.0,5.7,2.8,4.1,1.3,1.0,5.6,2.8,4.9,2.0,1.0,4.7,3.2,1.3,0.2,1.0,6.2,3.4,5.4,2.3,1.0,5.0,3.2,1.2,0.2,1.0,6.4,3.2,5.3,2.3,1.0,6.9,3.1,5.4,2.1,1.0,5.8,4.0,1.2,0.2]},"output":{"v":1,"dim":[149,5],"data":[-6.832039703877231,24.07514945957771,429.0913874776136,419.25572209922694,-13.120945628287238,-5.583867430453896,12.604595888359183,231.4876483193799,244.56701637227084,-7.91283108171289,-6.007749904795691,20.267117548347027,374.0858391715937,367.38153879250746,-11.22651026076159,-6.012673393665537,18.174694842916345,327.3296442120564,327.9043113073133,-10.326451937753246,-5.70289428148157,19.12936611201862,348.89977368868426,343.9349428848545,-10.45878064810385,-6.373395780326017,19.908560820521696,363.0817902682648,360.8283873612867,-11.284774681577126,-6.367761290518502,19.764922823880838,350.57077495171546,349.92763212089704,-11.11347025910633,-6.015575478433886,12.78385732009186,247.62994370032314,261.9958606037474,-8.395156058022266,-5.671827167964807,17.62030977208431,325.39706840494273,323.84118488449684,-10.013541820065107,-4.893208723126319,14.466688783849502,264.3773369612487,266.9399662077206,-8.076232159377906,-5.521474027607346,12.464273173809795,229.41838423419705,242.34970908383255,-7.828381614296574,-7.8169885944056885,24.00602662224879,440.3946167734201,436.51985128557845,-14.022402555755024,-6.372536930222798,20.179564648781188,383.8842109429995,379.1265044198304,-11.466890465939658,-5.211546794193792,12.145516249434086,221.33350385410344,233.05960655897226,-7.478788515954571,-5.434240213905864,12.27175216606987,225.2528288011652,238.22550155850303,-7.662284637548464,-5.851481227107337,18.788211464198362,346.4874151548428,343.11665169449236,-10.50485336979629,-5.805528040679584,13.350399521842226,241.99812240260775,254.95909449832814,-8.323478988897284,-6.518058746978865,21.368687156393783,401.03988868772547,394.1239515693201,-12.099086242545502,-5.984727092915569,18.687633613310748,329.7684730844833,329.2899713193452,-10.494634277130464,-5.284579697768375,12.267334438889476,219.2234204128812,231.74679778446307,-7.50707049524213,-6.562138378470673,21.001019751025083,392.5160449369433,387.17418576298513,-11.9957445368802,-5.918635074722384,12.975551105925435,241.66882004732253,255.7640191340224,-8.344071689386688,-4.832658757408158,11.177088345388631,204.6432598186515,216.28919151262713,-6.814596407741681,-5.104237294059854,16.524563029383373,294.3054857591038,293.2481495273818,-8.974673062753538,-5.956995512574104,19.817148586965295,361.4514895537704,356.27074335432303,-10.954073821484108,-5.828565775431466,17.51701563079216,316.79214286616246,317.8226402328031,-9.918605988653377,-5.779381234250767,19.032103543222476,342.62258284969107,338.7917104616587,-10.535416510492503,-6.755282346802434,20.003563559352138,360.6148202850107,361.5086861472357,-11.553508338592795,-5.548154693808767,18.65037680983409,344.73322321499387,339.2267433629509,-10.290077512050765,-6.636211552967523,21.79683631059004,399.0531395477772,393.02118299260576,-12.228500238639745,-5.466788194976961,12.522019109163582,241.91616438145357,252.96677991338717,-7.892558506232542,-5.928941851619885,20.02179925572963,349.2682246277672,344.8588473548821,-10.97662755837311,-6.137460199358637,18.455340272015125,331.46817238242215,332.3389258841899,-10.49535087258588,-5.82836197030478,12.69131517155261,241.62756257470514,255.2067497781604,-8.237139957631406,-4.9726459831250835,11.23729487103361,208.67168885703606,220.79745030254378,-6.989490856302457,-6.258878444351016,20.206333106442973,390.351030737233,383.5586553519879,-11.590304075418494,-5.716254446158908,12.775021865731064,235.57112692375512,249.03845305566745,-8.084727773409597,-6.621895821200495,20.1242793037186,362.9170796868709,362.4006215506378,-11.513431130628495,-5.325686637722975,11.151100116670039,214.41305236265214,228.63834806813998,-7.272229430853475,-5.134952481220343,11.934490716600159,212.98860089466643,225.40528297069523,-7.256524051077704,-6.314000907170251,18.894812940757294,341.8553121643759,342.5209638124523,-10.804866762963588,-5.24422451977678,16.584769555028352,298.3339147974884,297.75640831729845,-9.149567511314315,-5.441914484532571,12.798246811081963,240.0252841635353,250.92269071622377,-7.906243298758839,-4.814145460580711,16.42014691993306,305.0072595698136,300.29581854274977,-8.93419938434288,-5.722888445863351,12.627518140633585,241.69640423406906,254.57583620925837,-8.124212712147983,-5.063992658054409,11.867103180407087,217.1547132517788,228.65171462280776,-7.205564008671633,-6.121789849556504,20.257979400909736,367.78162106993454,362.5487134208587,-11.305948081234767,-5.983760882608098,18.650349339940167,335.9487999607879,334.79053236641613,-10.53112145900478,-6.171696034892652,12.989335210762542,245.5733578603525,260.9400135993611,-8.634891140294958,-4.779905345392715,11.309402827483575,204.7803862132988,215.90514024804003,-6.8057989359290145,-6.125869411194892,21.023692697652205,372.30450116157624,366.141581255521,-11.451256558713924,-5.14431142452807,16.027896424011196,296.08626684504077,295.36588293758524,-8.966983783955385,-5.861121217938444,19.0608486608427,348.693805634673,344.9499077183436,-10.580505365399942,-5.467754405284432,12.559303382534162,235.73583750514896,247.46621886631632,-7.856071324358225,-5.293053952819305,18.253736056625748,338.5672453561431,332.254314980281,-9.926603822402916,-6.310961616454131,18.8030980141244,345.97961012479044,346.0879019819198,-10.864032007956416,-5.284579697768375,12.267334438889476,219.2234204128812,231.74679778446307,-7.50707049524213,-5.981028477568934,13.115873820474823,243.73808413250543,257.9813264224607,-8.428521156803006,-5.459243668862145,16.184510826652048,287.48078438218,290.22511415910844,-9.089104971697836,-5.521507327196803,12.135847178700878,229.21297310426633,242.48689804410472,-7.733049312438485,-6.084536281805964,13.433528299761607,256.2353073556814,269.47617312523226,-8.709755067893152,-7.01112738831902,22.307839019523097,425.8425972900175,418.99628621576153,-12.893012471861692,-5.665193168260364,17.767813497181788,319.2717910946288,318.30380173090606,-9.97405688132672,-5.061919577645758,11.812672527144771,215.09868433588866,226.71809174520445,-7.228242071790144,-7.068859973101407,23.63537409775904,424.45884637056866,417.1982663473957,-13.201295842995377,-6.866405283923139,22.79813076082568,403.53364831864053,397.8123332178401,-12.700991022671984,-5.481085550026293,17.110134285057597,308.7342897487349,308.2221306563958,-9.56621093222685,-6.299330067265048,20.406310347913564,371.783022845653,367.36737926232234,-11.483644487880065,-6.110620768709848,18.98542542230126,342.1433570470438,341.158769820896,-10.677342330718902,-4.6025281717855195,15.021632247871382,260.9106486707462,261.17918677029047,-7.973275354101292,-5.9722699932127234,20.23342378025049,376.1688953501499,369.00475461856377,-11.201030239558555,-6.376149743864778,13.244295104219226,253.72707989981004,269.5992025553194,-8.87155699315354,-4.771264864458535,10.745623909100905,196.18825772723326,208.70851213739013,-6.5983274565929575,-6.194996712514254,20.03123370177736,379.882809167281,374.3078385783667,-11.289194059294358,-6.974092548566927,22.896220551528174,419.93751824366603,413.3116146360905,-12.841536505667017,-5.946315250820732,18.870513020211394,350.5979210218841,347.27768132634196,-10.673948103408472,-6.176649641570056,19.85166957696818,369.49511246124666,365.0035765233213,-11.19673518807083,-5.486238682176403,18.221419956800716,321.698936762502,319.11199345546004,-9.820660830319905,-5.21918030379516,11.706870802598269,221.07304315818206,233.23361762576445,-7.386453970960551,-5.700087815827612,12.95817649581428,241.86155293204098,254.46536988969828,-8.11521944155577,-5.807286773975397,17.554024680980167,325.15083791897274,324.88287235869814,-10.030940964910894,-6.858764312885889,21.94321012070467,388.5557818263396,385.2523330203915,-12.361700059603516,-4.785628818686783,14.676887094777081,262.5955608346532,264.23824080094306,-8.081315278871084,-5.881082082730766,12.887426684566583,241.69584730998855,255.45361208247533,-8.341269731302162,-5.868954253012518,12.871154519544357,237.47623735162463,251.9502186602399,-8.180776670723104,-5.2107103283982115,16.29721833856406,287.8509060935046,288.5156910094851,-8.955780824504556,-5.695071889625274,17.329443273528547,304.4723084695925,305.91701962473235,-9.732900178200868,-5.203946584181878,12.255735701160985,221.38855342009404,233.02278445245224,-7.475790759090499,-5.258739777016515,12.506277867437273,223.51286707126755,235.20326963437049,-7.557242469642745,-6.298471217161827,20.67731417617306,392.58544352038774,385.6654963208661,-11.665760272242597,-6.380070541055796,20.726197187272124,384.23998363687025,378.88894860580604,-11.660552826519908,-6.222365723281664,20.792207055193693,399.0252360519551,390.4080543045707,-11.791975839805957,-6.962272117122919,22.260864599991454,401.0530050495157,396.7471797231631,-12.642933970693665,-5.360337544946243,16.630062060853376,294.0857256117193,294.8572058232529,-9.20632726866898,-5.866681647131163,18.56777256074457,346.3773160228616,343.19029590753246,-10.510848883524433,-7.672962568075711,24.14524689170925,446.8762237016854,440.94190275192807,-14.038492835919484,-6.313967607580794,19.22323893586621,342.0607232943066,342.3837748521801,-10.900199064821676,-5.67234532020433,18.296815725448234,319.4649620959253,318.46692035637295,-9.964867811954957,-5.465648025286325,12.833298724380766,233.88521971918954,245.39540702844081,-7.9740816893348265,-5.861842862093891,13.307292383125821,252.31598240861962,264.3102781257015,-8.526258946299256,-5.683466178589768,17.310663525251968,314.8319828723023,314.9476967347507,-9.825554848203943,-4.3696169586625,11.072994452084053,194.69607844804472,204.35080886241346,-6.261435283992247,-5.447652880698401,18.752863252289124,328.3171131613341,324.02776953043957,-10.045010657825879,-6.446387922875264,19.065238918129175,345.9387907687511,346.9924004958489,-10.976763454660293,-6.306930277276962,20.296090896186666,371.72797327966236,367.4042013688424,-11.486642244744138,-6.16589531920189,18.26831991347529,343.8140390009995,343.3501474441396,-10.67564856564889,-5.22895003913816,16.16849436174316,283.6165090011088,285.0223970530577,-8.90261109323987,-5.536878252757859,17.069534729595546,304.4728653936731,305.03924375151536,-9.515843159046689,-5.1146729896612015,11.680358045049825,214.96155794124138,227.10214300979155,-7.237039543602809,-6.7888447606422195,22.54982095462117,401.36907223550816,395.65857067663393,-12.51521373966943,-6.209131023462238,20.758788510279732,386.5692703013965,379.4704769576611,-11.61767366047109,-6.072034967231845,19.51686871778967,348.7615334458759,346.0745458958755,-10.901692158224877,-5.548154693808767,18.65037680983409,344.73322321499387,339.2267433629509,-10.290077512050765,-6.420218732138805,20.86624467863894,400.848269651168,393.66704906721026,-11.89382445206806,-5.284579697768375,12.267334438889476,219.2234204128812,231.74679778446307,-7.50707049524213,-5.4407487487523944,18.5120112321739,357.16271862696703,349.5969518881905,-10.250124630315977,-5.589631664773302,16.937220247500598,304.33573899902575,305.42329501610243,-9.524640630859354,-5.547040362271707,17.33966434298553,321.25854023457697,319.40657030762026,-9.844642885232474,-5.636620842469339,12.472281406264239,231.35052192473262,244.95106763685794,-7.921628553525555,-5.4186588475902875,17.298237565617125,306.8704367934827,305.86763440768533,-9.577093766668625,-6.299396666443962,19.749458357695726,371.3722005857917,367.64175718286674,-11.292979884163886,-5.944275470001539,18.48765637184016,348.33648097606317,345.48124740901085,-10.601293864668893,-6.036514294623541,18.518034857845223,335.81167356614054,335.17458363100326,-10.539918930817448,-5.601140930886372,12.438587638167704,233.4335781032888,246.57428346291422,-7.8961485323225205,-6.545971748139377,21.1841743811083,398.8064709452292,392.601102597016,-12.026236205026374,-6.237202789070118,13.85808694868382,258.3458289134817,272.25074976953255,-8.90113626706475,-6.587204152951889,13.680177267687354,268.21149037951227,283.6585857045963,-9.243040086608598,-5.644221052481252,12.36206195453734,231.295472358742,244.987889743378,-7.924626310389628,-5.161865972483926,12.041119663053012,217.14092115840552,229.24580608518977,-7.315493497290984,-7.043986262657019,23.911601799677417,422.56796615265034,415.15417715023233,-13.214980635521675,-5.827573726970419,19.101723439487326,338.41620806061997,335.57200145025814,-10.482050980448271,-5.629020632457426,12.582500857991139,231.40557149072325,244.91424553033792,-7.918630796661485,-4.77802860867487,14.78710654650398,262.6506104006438,264.20141869442307,-8.078317522007012,-5.8514071664925424,18.151497367459374,331.65991022648205,330.4562846432917,-10.263892465449986,-6.317562316569115,18.984020284135838,352.31029856503505,351.4880961752385,-10.998849248552894,-6.462628613821355,19.51879838478495,354.47586968882604,354.2258507130188,-11.187232690860421,-5.673826187758662,17.03802632860763,312.62559239247213,313.1144407108995,-9.749902852600291,-5.5176315706851025,16.19583434119796,299.85467330408204,301.50992066408514,-9.269206865981296,-5.788939703031198,17.37446055617099,314.76314121293836,315.57861030365274,-9.938482093687366,-5.413927422757267,12.346045489628457,227.43119697767082,239.78517263732718,-7.738132431931662,-5.452650430183041,17.297154643597437,296.38842313015743,297.21090909644613,-9.385913239163841,-5.5962323648882855,17.11814251751204,310.6664274392705,310.8234892094212,-9.659457871455832,-5.423401187705124,18.04130538562639,340.38928391469733,334.92931774634644,-10.02584627536004,-5.159826191664733,11.658263014681777,214.87948111258473,227.44937216785863,-7.242839258551407,-6.197484551401396,19.774868670155243,381.89602864581474,375.97797597675094,-11.374035124269769,-5.329766199361363,11.916813413412507,218.93593245429383,232.2312159028023,-7.417537908332634,-6.165043930534551,19.832889828691606,379.8547868639564,374.0342536333397,-11.289389858073905,-6.49521735591779,20.734205419726567,386.1721213274059,381.4903071588315,-11.75379976574889,-6.388862325001463,13.28022123238754,251.60376128929505,268.0027093699752,-8.79271144190627]},"inputs_cnt":5,"units":5,"weights":{"v":1,"dim":[5,5],"data":[0.16562214138723394,-0.6239340284654977,-0.6999361285846275,-0.17240200843019446,0.35479911582966983,2.0557478728072036,1.4032271454938892,0.301032628224903,1.6241774491743666,-0.33693768096535687,21.139219328538367,20.794050622575288,20.243937564445698,21.610906110260892,20.930581025073344,23.495598403944,22.11985390962142,22.488565202649113,18.64412581981961,16.172652200779968,0.49608362666219147,-0.8444946741631655,-0.8744722428038784,-0.7864975246772147,0.2548002120303526]},"optimizer":{"RMSProp":{"learning_rate":0.1,"epsilon":1e-8,"rho":0.9,"e_gradient":{"v":1,"dim":[5,5],"data":[2.4828648881856982e-52,1.0541960242653815e-50,2.082423544465186e-51,8.560727949490825e-51,1.3235649037017492e-51,1.7563808493490294e-45,7.766311569886221e-44,1.5503752710711061e-44,5.541982902297609e-44,7.385728935569286e-45,0.0008536398714794087,0.02678819934650375,0.00596744021348986,0.01173434392347374,0.0011667097210091432,0.0062917236519863685,0.2331701372978161,0.05103373003811923,0.12878968300093147,0.013066557964194586,7.0886222849478635e-59,1.591951102749e-57,7.045778501815848e-58,1.2977904188802439e-58,3.022998357909238e-60]},"velocity":{"v":1,"dim":[5,5],"data":[0.0,0.0,0.0,0.0,0.0,0.0,0.0,0.0,0.0,0.0,0.0,0.0,0.0,0.0,0.0,0.0,0.0,0.0,0.0,0.0,0.0,0.0,0.0,0.0,0.0]}}},"activation_fn":"Softmax"},{"type":"dense","input":{"v":1,"dim":[149,6],"data":[1.0,4.795543168682053e-190,1.2695783552416869e-176,0.9999464941136941,0.0000535058863059415,8.904318062427968e-193,1.0,2.295358971234715e-109,1.8197003062301227e-101,2.0878616687132918e-6,0.9999979121383313,2.2356023229775044e-110,1.0,8.45122567556494e-166,2.1774572967751646e-154,0.9987758704493952,0.001224129550604852,4.575524382272559e-168,1.0,6.134329490413081e-146,1.9597815115330676e-135,0.36016061590609766,0.6398393840939023,8.209503294507838e-148,1.0,9.88547545276062e-155,6.018818180033925e-144,0.9930692392388889,0.006930760761111009,8.502416126143966e-157,1.0,3.193544188471938e-161,8.286700736756972e-150,0.9049436589510316,0.09505634104896839,2.351192428071531e-163,1.0,6.311199099037791e-156,1.410562679856659e-144,0.6554635558580639,0.344536444141936,5.483737573532795e-158,1.0,4.01894416015962e-117,5.869510709756208e-109,5.767150844694621e-7,0.9999994232849156,3.721116414972887e-118,1.0,1.3660303508407574e-144,1.7828175208932907e-134,0.8257618711900759,0.17423812880992412,1.7777784331675903e-146,1.0,8.167617596109428e-119,2.0892579027572914e-110,0.07158260943717105,0.9284173905628289,3.3863035193222896e-120,1.0,2.2434267833918884e-108,1.4521873955520138e-100,2.4210063172775254e-6,0.9999975789936828,2.233750513139579e-109,1.0,2.163962639719262e-195,1.431560361274518e-181,0.9796629748961831,0.02033702510381698,4.3679003040290225e-198,1.0,3.2354541441941947e-170,1.099933546579947e-158,0.9914878026031356,0.008512197396864386,1.983743969640599e-172,1.0,3.312450467914791e-104,1.143473474896093e-96,8.080063836017188e-6,0.999991919936164,3.4316171053154752e-105,1.0,1.513274372938668e-106,7.405126206790417e-99,2.322944304166902e-6,0.999997677055696,1.6303854045257578e-107,1.0,9.257386576062804e-154,4.649122304154394e-143,0.9667782207911044,0.03322177920889557,8.82174613502159e-156,1.0,5.6410809899358346e-114,1.1767276846813278e-105,2.3502838590752455e-6,0.9999976497161409,4.548101334729981e-115,1.0,9.986236133509356e-178,1.28961980832382e-165,0.9990091312539665,0.000990868746033518,3.7635040389293516e-180,1.0,9.436268819106429e-147,4.896327004444914e-136,0.6173940260662499,0.38260597393375,1.0379406009526442e-148,1.0,1.1444034027912875e-103,4.800412930096523e-96,3.6405309843988694e-6,0.9999963594690157,1.239834311756629e-104,1.0,4.791518251742591e-174,4.477139497858098e-162,0.9952358432048082,0.004764156795191745,2.092608453284016e-176,1.0,2.252511095971086e-114,3.616660453002245e-106,7.560186114734643e-7,0.9999992439813885,1.9921094748120076e-115,1.0,9.289595364313408e-97,8.335691262422293e-90,8.754519746202756e-6,0.9999912454802538,1.2801245085371892e-97,1.0,6.894763589691498e-131,1.705249811396218e-121,0.7421811667264644,0.25781883327353566,1.437508702736239e-132,1.0,2.7169821451946204e-160,4.242827183128209e-149,0.9944076419841794,0.005592358015820681,1.83604469573835e-162,1.0,2.030214431966466e-141,2.7951112115220994e-131,0.2629876906318534,0.7370123093681467,3.398286696263967e-143,1.0,4.804299576369235e-152,2.8649761244002484e-141,0.9787698126203901,0.021230187379609907,4.1315232795717126e-154,1.0,8.242474960589494e-161,3.445694388631626e-149,0.29031269388909337,0.7096873061109066,6.795392794370962e-163,1.0,7.463982843577454e-153,2.4113449097695102e-142,0.9959560445990852,0.004043955400914868,6.509980968120803e-155,1.0,6.461183106198979e-177,1.4408800878771693e-164,0.9976049578999687,0.0023950421000313456,2.407752993454532e-179,1.0,5.803908226101321e-113,3.768428544651611e-105,0.000015877121105266634,0.9999841228788948,5.131234658795225e-114,1.0,5.427255408606138e-155,1.0112159806876317e-143,0.9879834047974975,0.012016595202502532,3.48656857352923e-157,1.0,7.074606629006829e-148,3.3901571941818543e-137,0.2950975381498717,0.7049024618501283,9.059295472409484e-150,1.0,4.304184057667391e-114,4.752087447668002e-106,1.2665821953083272e-6,0.9999987334178047,3.8705425535862467e-115,1.0,8.897964143368178e-99,9.753904884797599e-92,5.418091839601257e-6,0.9999945819081604,1.1840936498106713e-99,1.0,5.675679182727616e-173,1.7689403072873622e-161,0.9988789584333977,0.0011210415666024047,2.7454219826908455e-175,1.0,2.2984532668125365e-111,2.46657851060113e-103,1.4164914574982004e-6,0.9999985835085426,2.1518935377361594e-112,1.0,2.032627540148991e-161,8.390234020142148e-150,0.6263191878291189,0.3736808121708811,1.526479627801596e-163,1.0,2.4587279328569655e-102,3.519557315896326e-95,6.637924117340615e-7,0.9999993362075882,3.5102470359040184e-103,1.0,7.544772127988646e-101,1.9534896628757744e-93,4.050435602435759e-6,0.9999959495643976,9.041891716400864e-102,1.0,2.1027686360925143e-152,1.8656932494285223e-141,0.339471192263836,0.660528807736164,2.357399735804714e-154,1.0,9.208819447005173e-133,2.7823747933737252e-123,0.6404934458635435,0.3595065541364565,1.8541080815504685e-134,1.0,4.594714901840439e-112,3.8358354514904436e-104,0.000018505824109700667,0.9999814941758902,3.908536422195103e-113,1.0,2.769400577088232e-135,4.616595100674298e-126,0.9910883213292873,0.008911678670712754,4.498514183656065e-137,1.0,8.988746411744473e-114,8.378754190171665e-106,2.5499558181789456e-6,0.9999974500441818,8.143615312111658e-115,1.0,3.151763205662486e-102,7.106161549433412e-95,0.000010160412345068717,0.999989839587655,3.7023797421002874e-103,1.0,4.106764340333291e-163,1.1751356501445327e-151,0.994690361017598,0.005309638982402106,2.301698681790987e-165,1.0,2.4097414562039796e-149,1.2034514801149935e-138,0.7610177852100231,0.23898221478997694,2.5531530148015197e-151,1.0,9.882307469585823e-117,2.0719940292423994e-108,2.1200500564637345e-7,0.9999997879949943,8.416011493242048e-118,1.0,1.4377919824350376e-96,1.3969916640175711e-89,0.000014742607644440607,0.9999852573923556,1.8961017987912205e-97,1.0,4.455172992548953e-165,2.7527678163388766e-153,0.9978983316263585,0.0021016683736415137,2.168095060559349e-167,1.0,1.0116680852345191e-131,1.5849336569573057e-122,0.6726915505041611,0.32730844949583887,2.212445278276911e-133,1.0,1.0199885232289659e-154,6.793119925550508e-144,0.9768852424233591,0.023114757576640995,9.09898170777705e-157,1.0,1.4196053524068138e-110,9.576776460742877e-103,8.045566152636384e-6,0.9999919544338475,1.3029710579854843e-111,1.0,4.598147787930518e-150,7.741478167762174e-140,0.9981905664679315,0.001809433532068456,4.469488104302386e-152,1.0,4.75299191045332e-154,3.8358762766706906e-143,0.47295346206691347,0.5270465379330865,5.007186047458193e-156,1.0,1.1444034027912875e-103,4.800412930096523e-96,3.6405309843988694e-6,0.9999963594690157,1.239834311756629e-104,1.0,2.3046530449012835e-115,4.5319472171238146e-107,6.519858733201555e-7,0.9999993480141266,1.993760504116432e-116,1.0,3.6212163045674283e-129,9.091124643634342e-120,0.06040768300573581,0.9395923169942642,9.603415805814497e-131,1.0,1.9557679963933743e-108,9.116097513305755e-101,1.7187269980619275e-6,0.9999982812730019,2.1421844106908805e-109,1.0,2.1159417298724834e-120,6.340031984845247e-112,1.7764962257172622e-6,0.9999982235037743,1.5324477331828834e-121,1.0,1.0317021368950278e-188,5.579813150574614e-176,0.9989377583933053,0.001062241606694742,2.8779556369307553e-191,1.0,5.518615653176302e-142,8.291930200697975e-132,0.7247185539852223,0.27528144601477766,7.421888312000486e-144,1.0,2.1838165992976186e-101,4.653271560008647e-94,8.989831981100336e-6,0.999991010168019,2.502616234611235e-102,1.0,3.886809672977593e-188,8.399872671601872e-175,0.9992977931061174,0.0007022068938825908,8.43937365821463e-191,1.0,5.808997422044347e-179,4.4385947608730683e-166,0.9967352926376287,0.0032647073623712545,1.698919468923401e-181,1.0,2.1582088779731686e-137,1.397447781482106e-127,0.6253124795653141,0.3746875204346859,3.6303296554514166e-139,1.0,6.247448372955836e-165,2.4763666348144563e-153,0.9880575726301195,0.011942427369880505,3.500930833039722e-167,1.0,4.1434388793222796e-152,3.284243244072179e-141,0.7280174734212694,0.27198252657873045,4.305850650086551e-154,1.0,2.1176152653031923e-116,7.055237553469785e-108,0.4332660246061418,0.5667339753938582,7.276962850920587e-118,1.0,1.0911002046919074e-166,2.6233294666683398e-155,0.9992267547396645,0.0007732452603355808,5.848478733769506e-169,1.0,1.397742915228816e-120,4.639575320738347e-112,1.2788648743497043e-7,0.9999998721135125,1.1526188058593838e-121,1.0,1.9360174353432585e-93,1.0612273517134744e-86,3.6519179519857233e-6,0.9999963480820481,3.114770567807946e-94,1.0,2.122734945850711e-168,5.209582495923034e-157,0.9962227347350319,0.003777265264968101,1.3017091936471633e-170,1.0,3.927062929847664e-186,3.686209489843909e-173,0.9986761727579959,0.001323827242003965,1.1113972741930922e-188,1.0,1.3784323149449657e-155,8.264127754486904e-145,0.9651166620757171,0.03488333792428288,1.219552737797496e-157,1.0,6.966075560218152e-164,1.4026315088881214e-152,0.9889207032206496,0.011079296779350463,4.6003696472973955e-166,1.0,7.477809757517581e-143,1.478698859312733e-132,0.9300165311822947,0.06998346881770544,9.80299522110853e-145,1.0,2.7622526077812324e-104,6.196607497824742e-97,5.232718107243459e-6,0.9999947672818927,3.1624844432717646e-105,1.0,1.0270128506146158e-113,1.3024381544468044e-105,3.3591576432940654e-6,0.9999966408423567,9.176932549858229e-115,1.0,1.0470904643871117e-144,1.464444305115588e-134,0.5665933849684461,0.43340661503155387,1.5334672172830803e-146,1.0,1.8112062707080267e-172,5.841259193167947e-160,0.9645469357287235,0.035453064271276466,7.380287566247914e-175,1.0,1.2235162353215914e-117,3.4679513927762316e-109,0.1621007289105378,0.8378992710894623,4.5322232337930217e-119,1.0,3.189950427380989e-114,4.516933796363452e-106,1.0594445125839478e-6,0.9999989405554874,2.724821226728163e-115,1.0,1.0728911183322964e-112,1.4766632964063515e-104,5.176420657684344e-7,0.9999994823579343,1.0630261079855734e-113,1.0,1.8030536678084114e-128,3.9516947583118604e-119,0.3396655670689533,0.6603344329310468,4.261330346751288e-130,1.0,3.772549845973045e-136,3.767513963319208e-126,0.1908168591744847,0.8091831408255152,6.653167266552488e-138,1.0,3.4629117352561766e-104,1.324601048388231e-96,8.857554121751073e-6,0.9999911424458782,3.5710179501279604e-105,1.0,3.7040135656921206e-105,1.9227450523235285e-97,8.373731646889484e-6,0.9999916262683531,3.7191657396114073e-106,1.0,5.841011879968318e-174,3.033352144610242e-162,0.9990130928481078,0.0009869071518921223,2.7258632852107717e-176,1.0,2.2584519613214536e-170,1.3363288875248779e-158,0.995279153047578,0.0047208469524220335,1.1495464878917403e-172,1.0,1.0072195749063373e-176,5.437559800103371e-165,0.9998190631894374,0.00018093681056266614,3.8394871423155936e-179,1.0,6.243056057996589e-178,3.0679215831134833e-165,0.9866898036854151,0.013310196314584879,2.129693660023756e-180,1.0,2.832257165013683e-131,1.0056384912121124e-121,0.3161589938009169,0.6838410061990832,6.051186937574385e-133,1.0,1.0111180265838094e-153,4.13571386640771e-143,0.9603428888042704,0.039657111195729546,9.724463474161173e-156,1.0,3.896265852093601e-198,2.5652008470761975e-184,0.9973599686111393,0.0026400313888605958,6.700911968133431e-201,1.0,2.118231028885456e-152,2.6100042261216358e-141,0.419932240365604,0.5800677596343959,2.1587299200332775e-154,1.0,4.553913927576931e-142,1.1696588086942823e-131,0.7306733870919672,0.2693266129080327,6.225381722162758e-144,1.0,1.1282977209409736e-109,9.989765850164523e-102,0.000010027318530787012,0.9999899726814693,9.183850647492646e-111,1.0,4.631652918204809e-118,9.79006707039605e-110,6.179322647762219e-6,0.9999938206773521,3.2254833498790817e-119,1.0,2.985559233439451e-140,2.892339965290886e-130,0.47110376984437763,0.5288962301556224,4.74394274909667e-142,1.0,2.258618903665274e-91,1.1494335797604158e-84,0.0000641174157841412,0.999935882584216,3.405937695751499e-92,1.0,1.1012563927323705e-145,3.5648319228057004e-135,0.9864716036560324,0.013528396343967672,1.1098935525147945e-147,1.0,2.363614237841023e-154,2.838803675303439e-143,0.25853253681688126,0.7414674631831187,2.547179219520368e-156,1.0,6.543511749003381e-165,2.3407562093925006e-153,0.9869234497731412,0.013076550226858715,3.683753497669615e-167,1.0,6.219701230800953e-153,2.5433982529449852e-142,0.6139369545926489,0.38606304540735104,6.842401807904547e-155,1.0,7.083047919669194e-127,1.3899917100578067e-117,0.1968834287145944,0.8031165712854055,1.7979162421921993e-128,1.0,8.380598629284371e-136,5.509541458511548e-126,0.3620729191442988,0.6379270808557013,1.5675901974828233e-137,1.0,1.4109638530305058e-101,2.776548024469429e-94,5.338368868804014e-6,0.9999946616311313,1.6895996267427075e-102,1.0,5.468060672148851e-178,3.0161570497807205e-165,0.9966999151575482,0.003300084842451797,1.781980206669535e-180,1.0,2.619081848928673e-171,1.3494839158804852e-159,0.9991745807375789,0.000825419262421069,1.1728672196020404e-173,1.0,7.398320291828616e-155,9.599592493133036e-144,0.9362544285059131,0.06374557149408693,5.910710131706883e-157,1.0,7.463982843577454e-153,2.4113449097695102e-142,0.9959560445990852,0.004043955400914868,6.509980968120803e-155,1.0,1.3341743380189678e-177,9.453074334190402e-166,0.9992398395537455,0.0007601604462545144,5.598295554683424e-180,1.0,1.1444034027912875e-103,4.800412930096523e-96,3.6405309843988694e-6,0.9999963594690157,1.239834311756629e-104,1.0,3.3349562847366704e-158,8.426391469979436e-148,0.9994823879242936,0.000517612075706411,2.7189720217179864e-160,1.0,6.348308152671039e-136,3.8542996874998904e-126,0.2520787756244146,0.7479212243755854,1.2408100986426455e-137,1.0,1.0158590703285119e-142,8.838997785482467e-133,0.8643582291145477,0.13564177088545223,1.3816829598413315e-144,1.0,1.4830272193064727e-109,1.0857890112147074e-101,1.2398167742798273e-6,0.9999987601832258,1.509325404692155e-110,1.0,1.733197943794364e-136,1.272538478873957e-126,0.7316092042204809,0.2683907957795191,2.7093357426386465e-138,1.0,9.311441831524273e-165,1.9137752399285713e-153,0.9765794759827493,0.02342052401725062,6.314388490601446e-167,1.0,1.2987472794200315e-154,5.298803713052379e-144,0.9455885828690302,0.05441141713096976,1.2331254466219963e-156,1.0,2.253509633083579e-149,1.0393567034500228e-138,0.6540953405526391,0.34590465944736093,2.4949143193065372e-151,1.0,3.031125103530982e-110,2.070896689880772e-102,1.9636465604310153e-6,0.9999980363534396,3.0541806697755717e-111,1.0,9.053054693976872e-177,9.99642220349165e-165,0.9979855012599729,0.002014498740027043,3.7735189142030564e-179,1.0,1.132970312572491e-121,6.046331793337504e-113,9.144694549250286e-7,0.999999085530545,7.893814571800309e-123,1.0,8.868598302659948e-127,5.621690058040896e-118,1.9561927902048722e-7,0.9999998043807211,6.229312143893137e-128,1.0,1.4185897005995587e-109,9.37316262107223e-102,1.130988514985321e-6,0.999998869011485,1.450405314463503e-110,1.0,1.577753335099451e-102,4.6687523810269575e-95,5.5323910430807514e-6,0.9999944676089569,1.831177977834422e-103,1.0,2.640206870694097e-187,7.336333008092287e-174,0.9993974812078514,0.0006025187921487114,5.515808158985676e-190,1.0,2.9666439315000986e-150,1.990314105070262e-139,0.9450184413571415,0.05498155864285835,2.8239151044387942e-152,1.0,1.5503917089223794e-109,1.2577801241583416e-101,1.3591169117298257e-6,0.9999986408830883,1.570639000475527e-110,1.0,1.259448070344902e-117,3.955582992539053e-109,0.1749695560891125,0.8250304439108874,4.643901522272897e-119,1.0,2.0263717406740134e-147,5.383294126862409e-137,0.7691691265808953,0.2308308734191048,2.4569770701996267e-149,1.0,1.2350898158504922e-156,1.202364783583791e-145,0.6947036462376646,0.3052963537623353,1.1445676263991866e-158,1.0,9.91466801736144e-158,1.9048840893095834e-146,0.5621811714731922,0.43781882852680776,8.798501188522045e-160,1.0,2.209484442200686e-139,1.6140729880548257e-129,0.3801649119076271,0.619835088092373,3.750363337876034e-141,1.0,3.8344243803979767e-134,1.0321399921010053e-124,0.16040101441970595,0.839598985580294,9.003507448077503e-136,1.0,1.8739202299356444e-140,2.150245336082609e-130,0.30672629170810173,0.6932737082918983,2.9554780413765292e-142,1.0,3.246250304235661e-107,1.676641601867318e-99,4.312555214955272e-6,0.9999956874447851,3.176819889049813e-108,1.0,2.4930064263110747e-132,1.891638767476859e-122,0.3052362132060855,0.6947637867939145,4.8812276667782015e-134,1.0,2.0530460690490765e-138,1.503579396919355e-128,0.46081507680886247,0.5391849231911375,3.5298989944782874e-140,1.0,6.510519552794396e-151,1.0097369100781723e-140,0.9957643176684053,0.004235682331594738,6.528285554832582e-153,1.0,9.530313857823337e-102,1.9191571651607363e-94,3.4750748821664286e-6,0.9999965249251178,1.1870421015880688e-102,1.0,2.831143510262337e-169,5.390283041579405e-158,0.9973167847692378,0.002683215230762218,1.59887508546747e-171,1.0,6.738692309977187e-104,2.082907503004911e-96,1.6824068669671394e-6,0.999998317593133,8.353488790578648e-105,1.0,2.2512895724158356e-168,4.397344920457272e-157,0.9970427481288252,0.002957251871174895,1.3395415837814876e-170,1.0,2.9022684469517735e-171,1.9423417135975356e-159,0.9908228055169822,0.009177194483017747,1.5099558778895305e-173,1.0,6.811684107598443e-120,2.3737170670418655e-111,7.551397064196194e-8,0.9999999244860293,6.1556808129495256e-121]},"output":{"v":1,"dim":[149,3],"data":[-35.99003336272189,2.8382107415401316,4.277328877648066,7.563614397692265,3.5328876611468285,-37.90110225119603,-35.93904559738604,2.8390239919929066,4.227951062947853,-8.123475374779304,3.2826799343295363,-22.7093360133847,-35.690487173450684,2.842988477384154,3.987240929479312,-31.85208329965366,2.904210687609201,0.27003555723986494,-20.98571066392903,3.077528392509791,-10.253228816791276,7.5636802172974695,3.532888710963846,-37.90116599253178,-28.403235872118437,2.959219506166328,-3.0699137047918788,4.4458482461804385,3.4831595603434145,-34.881780296333154,7.563599887220897,3.5328874297060633,-37.9010881988962,-35.10656299595192,2.8523020175757843,3.4217542946839523,-35.62160600989962,2.8440871259928264,3.9205347048045143,7.563353400919972,3.5328834982708552,-37.90084949545797,7.563604158416728,3.532887497831268,-37.90109233522802,-34.54535375445464,2.861253256500311,2.8782653664643014,7.563602967613181,3.532887478838054,-37.90109118202437,-35.94920552113289,2.8388619420867602,4.23779018472218,-19.327551589694096,3.1039758865117593,-11.859031129791866,7.563546769520098,3.532886582483324,-37.90103675839924,-35.78485592573128,2.8414833039368688,4.078629966298399,7.563672407540636,3.5328885863988986,-37.90115842936984,7.563324024271672,3.532883029715852,-37.90082104638422,-24.762788924252888,3.0172843205223234,-6.595412687412515,-35.748782736049456,2.8420586681962847,4.04369579603182,-3.8910047166287427,3.3501874757254626,-26.808165418941694,-35.06766035805569,2.8529225112898122,3.3840800166932232,-5.081174449542921,3.3312043712925568,-25.655575574171404,-35.81622506750234,2.8409829688352923,4.109008620069026,-35.888045249349574,2.839837443138669,4.178561062848751,7.563013791753955,3.5328780815339926,-37.90052060953093,-35.46896821655348,2.846521685611817,3.772716485542506,-5.289583457303153,3.3278802656211885,-25.453747129656247,7.563650169397845,3.532888231702442,-37.90113689340163,7.563469345956472,3.5328853475841715,-37.90096177950277,-35.94353570475151,2.8389523751682835,4.232299394121339,7.563643639939648,3.5328881275581483,-37.901130570112606,-19.71629655310833,3.0977754379251623,-11.482560879670704,7.563676424551375,3.532888650469873,-37.90116231954253,7.563528915686186,3.5328862977162157,-37.90101946830432,-7.222325406794046,3.297053198477405,-23.58203196001383,-20.333671516993025,3.0879283605801615,-10.884679674906241,7.562899295783971,3.5328762553331616,-37.90040972879802,-35.604206175889566,2.844364651842286,3.9036842746296703,7.563594270687512,3.5328873401228407,-37.90108275970617,7.56326278911634,3.5328820530204146,-37.900761744743264,-35.76109686583476,2.8418622588899063,4.05562110428426,-25.583237982521283,3.0041982289134794,-5.800869500369726,7.5636961026349,3.532888964333605,-37.90118137628596,7.563063206700768,3.5328788696981257,-37.90056846418922,-35.9008234556793,2.8396336318514934,4.19093579432,-21.736094391007253,3.065559836881174,-9.526538631691766,-34.985575888131095,2.8542317514946385,3.3045873831368393,7.563354903503457,3.532883522236932,-37.900850950597025,-35.91355205666312,2.8394306117653003,4.203262486745769,-13.036288388050561,3.2043209911375294,-17.951646221957223,7.563546769520098,3.532886582483324,-37.90103675839924,7.56367693879778,3.532888658672059,-37.90116281755148,4.9325841151949446,3.490922955409864,-35.35314736625343,7.563630475747527,3.5328879175904206,-37.90111782158293,7.563627959547049,3.5328878774572403,-37.901115384832075,-35.94609679987453,2.8389115259222995,4.234779622065851,-24.00218615518566,3.029415868987942,-7.331999245856157,7.5633137749956845,3.5328828662407856,-37.90081112073152,-35.96177849674218,2.838661404211848,4.249966165681069,-35.85016604899744,2.8404416131122736,4.141877907121884,-19.67244829830025,3.0984748138017313,-11.525024615560662,-35.472198675803995,2.8464701600658193,3.7758449422853655,-24.145874118445658,3.027124058385737,-7.192848263698604,-11.307659615418318,3.23189247074175,-19.625693136118926,-35.9586843447367,2.8387107556690623,4.246969712250049,7.563699766506901,3.5328890227720473,-37.90118492447034,7.563546273548551,3.5328865745726206,-37.90103627808811,-35.82784104152007,2.8407976950530993,4.120257816985816,-35.93470315783982,2.839093253528568,4.223745736947637,-34.47298278805814,2.862407567162918,2.808179530286494,-35.50979325153854,2.8458705298302793,3.812252460483627,-32.944159057740436,2.886792173601417,1.3276287674188834,7.563477420107587,3.532885476366185,-37.900969598710674,7.563559025036817,3.532886777957757,-37.90104862694515,-17.114875350351927,3.1392678813978963,-14.00184159850187,-34.44816774786027,2.862803364910546,2.784148030796411,0.5032347700423854,3.420275215962672,-31.063655764360306,7.56365919150109,3.5328883756042098,-37.90114563062984,7.563682790285959,3.53288875200279,-37.901168484277555,-7.230791609257549,3.2969181632794244,-23.573833079876536,-0.7475269870496275,3.400325673978079,-29.8523871027708,7.5633195364992805,3.53288295813627,-37.90081670031429,7.563340609904479,3.532883294255263,-37.90083710832179,-35.94937807260147,2.8388591899057416,4.237957287837722,-35.78674233224024,2.841453215915999,4.0804568090799,-35.984482972566035,2.838299269783674,4.271953742361703,-35.41262403699125,2.847420370408815,3.7181513866499887,-6.206937677209663,3.313248545054902,-24.56535858415653,-34.265055989075414,2.8657239816459383,2.6068180686937166,-35.8773744789307,2.8400076410051067,4.168227224505757,-10.726892386265607,3.2411556578799585,-20.188122503951845,-24.26155527809053,3.0252789538819607,-7.080819763770732,7.563268586159727,3.5328821454827555,-37.90076735874365,7.563436189734708,3.532884818745299,-37.900929670196476,-12.955723065596828,3.2056060010714194,-18.02966767548003,7.560912634140424,3.5328445682515555,-37.8984857964613,-35.4031201014108,2.847571957360371,3.7089475400620273,-3.696955728742455,3.3532825403202624,-26.996087264574626,-35.42280074215785,2.847258052840473,3.72800675996681,-19.1769751453414,3.1063775677923644,-12.004853087637814,-1.011762909778918,3.396111133835294,-29.596494491205583,-8.206767786964384,3.281351427549998,-22.628673578627705,7.563472818375705,3.532885402968959,-37.90096514227956,-35.84862514502673,2.840466190397503,4.140385657555049,-35.95641185029113,2.8387470017591703,4.244768972348991,-33.21585734526506,2.882458609384746,1.5907481178627836,-35.81622506750234,2.8409829688352923,4.109008620069026,-35.959254267804354,2.838701665445363,4.247521639863327,7.563546769520098,3.532886582483324,-37.90103675839924,-35.969818721417646,2.8385331633227904,4.257752518378784,-3.4158552596072953,3.3577660685214594,-27.268311920542004,-30.084341508958843,2.9324060164729304,-1.4418893722758872,7.563651335194377,3.532888250296796,-37.901138022387855,-24.302315793703812,3.0246288271788293,-7.041346270987117,-34.97225790388316,2.854444172192983,3.2916899173616128,-33.62241641868026,2.8759740272824192,1.9844699932882346,-20.926116583397853,3.0784789129465153,-10.310941200268273,7.563619808014118,3.5328877474409945,-37.9011074906857,-35.90462022227363,2.839573073752279,4.194612677119629,7.563665506044733,3.532888476320635,-37.901151745790294,7.563696816332745,3.5328889757170248,-37.90118206744864,7.563656075325571,3.5328883259014794,-37.901142612848304,7.563464367532454,3.532885268178739,-37.90095695827366,-35.96612051860027,2.838592149338276,4.254171087181764,-33.597583295531486,2.8763701134515527,1.960420981820664,7.563646138949333,3.532888167417137,-37.90113299021547,-0.05728075714185543,3.411335041721515,-30.52083864626173,-25.938278371389043,2.998535365379491,-5.457039594957591,-22.694854756134884,3.050267691875281,-8.598051349706713,-16.922696674003,3.142333114685233,-14.187952188122406,-8.99478387583019,3.2687826390015595,-21.865539282380382,0.5772676520347302,3.421456034035476,-31.13535104075968,-5.796086252059687,3.3198015897966244,-24.96323727930514,7.563517498786204,3.5328861156176465,-37.901008411895624,-5.731184289704169,3.3208367704899517,-25.026089946994368,-12.507588039707283,3.212753716024374,-18.463652732940233,-35.807874196041084,2.8411161645137497,4.100921429330556,7.563553976137538,3.5328866974282493,-37.90104373746605,-35.875493560524276,2.8400376414912154,4.166405696538664,7.563632057709669,3.5328879428225806,-37.90111935359424,-35.86355760164961,2.840228019004236,4.15484661836176,-35.592641350793635,2.8445491098035944,3.8924846115955005,7.563702047647866,3.532889059156049,-37.90118713358374]},"inputs_cnt":6,"units":3,"weights":{"v":1,"dim":[3,6],"data":[-1.0303489875090175,0.40580222826468637,-1.0621960476011965,-35.12705325924482,8.472236848348391,0.1935823750388341,2.9564358180787553,0.5054781914188073,1.1960200328736743,-0.28950807899818765,0.5495551450940984,-0.0239300913583913,1.3563819760951188,-0.09579393559756195,-0.10931169829252818,3.0961853133557997,-39.128761974009194,-0.4748134208639626]},"optimizer":{"RMSProp":{"learning_rate":0.1,"epsilon":1e-8,"rho":0.9,"e_gradient":{"v":1,"dim":[3,6],"data":[0.00007640669864781076,3.376154281116601e-52,1.6808913234217195e-47,7.211955362377693e-7,0.00006453925441990981,2.6601893341966883e-58,0.007380944317419825,5.373268901118776e-53,1.2942567310072695e-45,0.00797191647871025,0.000042821824762786545,4.478099393749207e-59,0.008314879470620807,1.2197308789957568e-52,1.4846487745110815e-45,0.008046404382400752,4.2221127631235275e-6,1.2792432913588265e-58]},"velocity":{"v":1,"dim":[3,6],"data":[0.0,0.0,0.0,0.0,0.0,0.0,0.0,0.0,0.0,0.0,0.0,0.0,0.0,0.0,0.0,0.0,0.0,0.0]}}},"activation_fn":"Softmax"}],"optimizer":{"RMSProp":{"learning_rate":0.1,"epsilon":1e-8,"rho":0.9,"e_gradient":{"v":1,"dim":[1,0],"data":[]},"velocity":{"v":1,"dim":[1,0],"data":[]}}},"loss_fn":"CrossEntropy"}