{"layers":[{"type":"dense","input":{"v":1,"dim":[149,5],"data":[1.0,6.3,2.7,4.9,1.8,1.0,6.3,2.8,5.1,1.5,1.0,5.8,2.7,5.1,1.9,1.0,5.7,2.6,3.5,1.0,1.0,6.7,3.1,4.7,1.5,1.0,5.6,2.8,4.9,2.0,1.0,5.0,3.6,1.4,0.2,1.0,5.6,3.0,4.1,1.3,1.0,6.2,2.2,4.5,1.5,1.0,6.8,2.8,4.8,1.4,1.0,5.2,4.1,1.5,0.1,1.0,4.9,3.1,1.5,0.1,1.0,6.7,3.1,5.6,2.4,1.0,6.9,3.1,5.4,2.1,1.0,4.4,3.0,1.3,0.2,1.0,6.3,3.3,4.7,1.6,1.0,5.7,2.8,4.5,1.3,1.0,5.5,3.5,1.3,0.2,1.0,7.9,3.8,6.4,2.0,1.0,5.0,2.3,3.3,1.0,1.0,5.1,3.8,1.6,0.2,1.0,4.5,2.3,1.3,0.3,1.0,5.5,2.4,3.7,1.0,1.0,5.6,2.9,3.6,1.3,1.0,6.5,3.2,5.1,2.0,1.0,6.4,2.8,5.6,2.2,1.0,5.0,3.5,1.6,0.6,1.0,5.9,3.0,4.2,1.5,1.0,6.2,3.4,5.4,2.3,1.0,4.6,3.4,1.4,0.3,1.0,6.0,2.2,4.0,1.0,1.0,5.4,3.7,1.5,0.2,1.0,4.6,3.6,1.0,0.2,1.0,6.3,3.3,6.0,2.5,1.0,5.0,3.5,1.3,0.3,1.0,5.4,3.9,1.7,0.4,1.0,6.3,2.9,5.6,1.8,1.0,5.1,3.8,1.9,0.4,1.0,7.7,2.8,6.7,2.0,1.0,5.0,2.0,3.5,1.0,1.0,5.8,2.8,5.1,2.4,1.0,7.2,3.2,6.0,1.8,1.0,5.9,3.2,4.8,1.8,1.0,4.9,2.4,3.3,1.0,1.0,5.4,3.4,1.7,0.2,1.0,7.2,3.0,5.8,1.6,1.0,6.9,3.1,5.1,2.3,1.0,6.0,2.2,5.0,1.5,1.0,7.7,3.8,6.7,2.2,1.0,5.8,4.0,1.2,0.2,1.0,5.1,3.7,1.5,0.4,1.0,4.6,3.1,1.5,0.2,1.0,6.4,2.9,4.3,1.3,1.0,5.1,3.8,1.5,0.3,1.0,6.3,2.5,4.9,1.5,1.0,7.1,3.0,5.9,2.1,1.0,5.1,3.3,1.7,0.5,1.0,5.4,3.0,4.5,1.5,1.0,5.0,3.3,1.4,0.2,1.0,5.1,3.5,1.4,0.2,1.0,5.5,4.2,1.4,0.2,1.0,4.4,3.2,1.3,0.2,1.0,4.7,3.2,1.3,0.2,1.0,6.1,3.0,4.6,1.4,1.0,4.6,3.2,1.4,0.2,1.0,5.2,3.4,1.4,0.2,1.0,7.3,2.9,6.3,1.8,1.0,7.7,3.0,6.1,2.3,1.0,5.1,3.5,1.4,0.3,1.0,6.1,2.9,4.7,1.4,1.0,6.7,3.3,5.7,2.1,1.0,5.5,2.6,4.4,1.2,1.0,6.1,2.6,5.6,1.4,1.0,4.9,2.5,4.5,1.7,1.0,5.7,3.0,4.2,1.2,1.0,6.8,3.2,5.9,2.3,1.0,5.0,3.2,1.2,0.2,1.0,6.3,3.4,5.6,2.4,1.0,6.5,3.0,5.5,1.8,1.0,5.8,2.6,4.0,1.2,1.0,4.9,3.1,1.5,0.1,1.0,6.2,2.9,4.3,1.3,1.0,5.4,3.4,1.5,0.4,1.0,6.2,2.8,4.8,1.8,1.0,7.7,2.6,6.9,2.3,1.0,6.1,2.8,4.0,1.3,1.0,4.8,3.1,1.6,0.2,1.0,5.2,3.5,1.5,0.2,1.0,4.3,3.0,1.1,0.1,1.0,6.5,2.8,4.6,1.5,1.0,4.8,3.0,1.4,0.3,1.0,6.6,3.0,4.4,1.4,1.0,6.4,2.8,5.6,2.1,1.0,5.0,3.4,1.6,0.4,1.0,6.1,2.8,4.7,1.2,1.0,5.5,2.5,4.0,1.3,1.0,5.3,3.7,1.5,0.2,1.0,6.7,3.1,4.4,1.4,1.0,5.0,3.0,1.6,0.2,1.0,6.9,3.2,5.7,2.3,1.0,5.7,4.4,1.5,0.4,1.0,7.2,3.6,6.1,2.5,1.0,6.9,3.1,4.9,1.5,1.0,6.7,2.5,5.8,1.8,1.0,4.4,2.9,1.4,0.2,1.0,7.0,3.2,4.7,1.4,1.0,6.4,3.1,5.5,1.8,1.0,6.0,3.0,4.8,1.8,1.0,6.5,3.0,5.8,2.2,1.0,6.3,2.3,4.4,1.3,1.0,6.0,3.4,4.5,1.6,1.0,4.9,3.0,1.4,0.2,1.0,5.4,3.9,1.3,0.4,1.0,6.4,2.7,5.3,1.9,1.0,6.8,3.0,5.5,2.1,1.0,6.5,3.0,5.2,2.0,1.0,5.1,2.5,3.0,1.1,1.0,6.3,2.5,5.0,1.9,1.0,6.4,3.2,5.3,2.3,1.0,5.6,2.7,4.2,1.3,1.0,4.8,3.4,1.6,0.2,1.0,6.1,3.0,4.9,1.8,1.0,4.9,3.1,1.5,0.1,1.0,4.7,3.2,1.6,0.2,1.0,5.7,2.8,4.1,1.3,1.0,6.0,2.9,4.5,1.5,1.0,5.1,3.4,1.5,0.2,1.0,5.7,3.8,1.7,0.3,1.0,6.0,2.7,5.1,1.6,1.0,4.8,3.4,1.9,0.2,1.0,5.8,2.7,4.1,1.0,1.0,5.5,2.3,4.0,1.3,1.0,6.6,2.9,4.6,1.3,1.0,6.4,3.2,4.5,1.5,1.0,5.0,3.4,1.5,0.2,1.0,7.6,3.0,6.6,2.1,1.0,5.5,2.4,3.8,1.1,1.0,5.6,2.5,3.9,1.1,1.0,6.7,3.3,5.7,2.5,1.0,4.8,3.0,1.4,0.1,1.0,6.7,3.0,5.0,1.7,1.0,5.2,2.7,3.9,1.4,1.0,5.8,2.7,3.9,1.2,1.0,7.4,2.8,6.1,1.9,1.0,5.6,3.0,4.5,1.5,1.0,5.7,2.9,4.2,1.3,1.0,6.7,3.0,5.2,2.3,1.0,5.7,2.5,5.0,2.0,1.0,5.8,2.7,5.1,1.9]},"output":{"v":1,"dim":[149,5],"data":[544.47287807575,546.0477858667166,-10.76686515443496,-10.953001721657412,-9.470923387332057,550.5765003587458,551.634196179617,-10.640997354112006,-11.017072371490874,-9.670640201841474,527.4621938004013,529.6409735875504,-10.441098386367878,-10.81455678861755,-9.042516675377366,462.5195274473304,461.51888074172734,-8.80951357508411,-9.000507242328169,-8.174449096474314,564.1294958654752,564.3730782120183,-10.994459059824965,-11.343682343130117,-9.91158730651174,514.614610219743,516.8076443867869,-10.281423219079588,-10.715185486058566,-8.71302443523871,378.78254261958085,373.60426955315296,-6.919796112749944,-7.716667886990928,-6.567941183848514,488.19534581305163,488.0408518679866,-9.409284978314467,-9.965298154167522,-8.431263742894615,513.1612006270136,514.2516482532614,-10.012156851715762,-9.880017971191316,-9.102935648528183,564.4371353746118,564.7985163353966,-10.922244327092262,-11.087413824264376,-10.040502206988402,402.16774098495125,396.33840097858536,-7.296478925363087,-8.409281475598114,-6.950494236598112,364.87294718603766,360.0800078845526,-6.560016983619469,-7.105775274579967,-6.449992658422955,599.9131999308267,602.8228762981454,-12.170623107302067,-12.50369548078238,-10.246410224809322,600.7900280964739,602.81737073545,-12.023476802823737,-12.31930341993835,-10.403008878280549,332.9807885320586,328.5126780538303,-6.012583128469801,-6.584692126088915,-5.768806199334082,550.2086078832,550.6466806400774,-10.767022806518396,-11.356566790715911,-9.508123813795745,501.06032830022536,501.41402308349495,-9.600382636654818,-10.084351238848287,-8.733071523367435,397.4879166726027,392.0927325616574,-7.3326598682458695,-7.8737788742730555,-7.014949522377598,695.7069455237139,697.3894360912215,-13.689567916397726,-14.381998938809076,-12.188312476490216,415.58421599178195,414.9721434550657,-7.888350224459372,-8.064013131930228,-7.267741371813477,394.4725359505854,389.25465275392486,-7.196205807857763,-8.140411188682013,-6.827063230318274,322.6651051366951,318.99284314970635,-5.893827171863744,-5.9409966861371135,-5.722088392729996,454.6023910236162,454.05416519652204,-8.610988768859988,-8.782090109315668,-8.044675084187622,470.16382217493856,469.6378421930439,-9.143098096145055,-9.514556458449968,-8.11993928895267,573.485879277272,575.113532407418,-11.446563059366817,-11.896079395615965,-9.847994665898652,576.9355117990278,579.8389112822558,-11.566946314550815,-11.850185603741211,-9.918799406616502,386.1050352334057,382.0175353977601,-7.309908192497502,-7.985798026584567,-6.581061036239903,507.479251182236,507.69566183323514,-9.926717845946705,-10.35623862831777,-8.761616508185847,575.4943149218651,577.9583273715385,-11.625210680938926,-12.301935773111026,-9.682311765993434,355.73654527450907,351.1156757491749,-6.518008232502255,-7.288655157033681,-6.0900740115200485,483.62668477387007,483.32204764056394,-9.158343797967937,-9.10139072327747,-8.70726133004465,403.52322974232584,398.1745140864692,-7.4086809804264755,-8.163346671190443,-7.064409982751372,346.87298505908655,341.4970977076859,-6.340939766548215,-7.175902956378096,-5.914439184425478,598.5925089864827,602.066447219751,-12.121266034342801,-12.78899384943361,-10.077125559324388,374.17713387828854,369.2009360357178,-6.917853510005134,-7.599126980700479,-6.469453396807376,416.0377186604689,411.1000117771826,-7.757226582225281,-8.641575957218022,-7.176016915512625,571.0857775735277,573.126328846442,-11.165679533513304,-11.650174672293439,-9.917938174792651,405.574519446813,401.04154445200646,-7.502095391272833,-8.466295366204431,-6.960013030081058,672.6896396338894,675.6428202053288,-13.186859651378192,-13.349890930976855,-11.968275811786349,415.0404824886502,414.8854805278113,-7.846626094427184,-7.869547209305664,-7.329028025719655,533.8730604355485,536.9800609653635,-10.915511788489638,-11.228715424811664,-8.954406793629202,633.9758678093233,635.7266520558371,-12.376271057238906,-12.857051247997795,-11.151396899165006,533.4198549971998,534.6208356814559,-10.53950772717011,-11.167668703772453,-9.086060107847908,413.03815320184043,412.37839167509486,-7.831743839731045,-8.107149673929138,-7.181511498668602,402.979496239194,398.0878511592147,-7.366956850394288,-7.96888074856588,-7.125696636657549,621.4613788911802,622.8011543651238,-12.0277254554401,-12.37882196197022,-11.03978996640375,592.9917160358048,595.1493096932113,-12.062247615717851,-12.236566715862615,-10.184690437196739,519.256766663146,520.8955071942346,-10.034367244222679,-10.08635986774941,-9.185997596471024,697.1542487586598,699.6077261133429,-13.795068916885583,-14.573707611557797,-12.111600690157012,420.22627450853787,414.15588824225716,-7.806662481226262,-8.558060123096045,-7.3639017942294,390.69304506818276,385.88102690045054,-7.28042830419025,-8.083657150753236,-6.707233282946879,351.2168446530049,346.75681303457304,-6.345599208305946,-6.96529888578109,-6.114158118948717,530.8328880364443,530.6096937605914,-10.256290993461688,-10.527982839409274,-9.368398580990975,392.1484045499922,387.04186829449895,-7.237851111848233,-8.133094576777326,-6.747176363180253,537.4325698176829,538.5775647588159,-10.421194043732513,-10.55019252780088,-9.497748028516591,623.9136773144703,626.4078839703342,-12.402876454449801,-12.68377203165808,-10.886793078512243,388.69395208324136,384.63352257914767,-7.281281366500078,-7.8397538021045845,-6.728576856619681,492.7926983074805,493.50163401349477,-9.55930577388915,-10.225110307182602,-8.413096663369178,371.9387105974834,367.0326223791252,-6.7890323925441045,-7.385995003833648,-6.512138424139161,381.32860540952237,376.1980213331238,-6.97640249747827,-7.673531344992017,-6.654171056993389,416.6069073169794,410.66906809110884,-7.682295010479656,-8.713452415239733,-7.203700668507187,337.5433432134569,332.8937761698488,-6.099758941940361,-6.805140714860435,-5.806008039140318,352.02536360537914,347.24667868378907,-6.40034181633118,-7.006403972020982,-6.120500418284298,528.9082106225592,529.2045243387812,-10.219020510143924,-10.702041185795233,-9.226799081843152,350.34807273422115,345.7048699691956,-6.3446673199544,-7.007419699900491,-6.074214332044069,383.8746681994641,378.7917731130946,-7.033008882206596,-7.630394802993107,-6.740400930138265,641.409523696315,643.6667820899495,-12.47926101375715,-12.797776558026442,-11.376059052926943,660.8296523350597,663.6580885729095,-13.265411991559683,-13.344079243235235,-11.590182929755223,382.154523268412,377.22772899708457,-7.062567596555566,-7.734318213353687,-6.632828896663134,529.7769825413428,530.2564674041586,-10.219952398495472,-10.659920371675831,-9.2667428687478,605.148050295039,607.3573435456683,-12.043823418627563,-12.609886944735246,-10.406183252414092,482.86712623917316,483.1921235041689,-9.182133346092924,-9.60083679667504,-8.449005550987703,551.2835938545904,552.867249340611,-10.489866834071067,-10.94217881091578,-9.737842470308335,458.9014466685602,460.68679986146964,-9.012724981049313,-9.460123810042896,-7.753253777953112,495.3468173442857,495.0379371653927,-9.467833965787603,-10.03970251845906,-8.61598140308063,615.6460473217255,618.4954949003339,-12.361799591684134,-12.824531099992395,-10.566818218513987,363.3573347378187,358.3570890743426,-6.6564048956351725,-7.139563748915171,-6.376448090620513,587.4476714303611,590.2573201202529,-11.90060966165348,-12.566017354392262,-9.882889812326702,579.8716859160257,581.6429874570247,-11.36513622808897,-11.82647099118654,-10.08765597398399,484.7489495931643,484.57505752456234,-9.304637040136438,-9.529686132770154,-8.52931910290062,364.87294718603766,360.0800078845526,-6.560016983619469,-7.105775274579967,-6.449992658422955,521.1782077751627,521.0410920846313,-10.055902410534477,-10.393807334635575,-9.158736994894989,398.3312334380077,393.66228224036297,-7.4502474583752285,-7.9542475247565045,-6.965922902381507,538.7767660263256,540.2115419633592,-10.665738974619808,-10.928034783389961,-9.326148807379418,676.9049370481255,680.8358293279659,-13.447218725313173,-13.448009907823064,-11.984136904604874,504.61944252537444,504.3387658184818,-9.778560827075111,-10.01218484706389,-8.859671161520582,364.0215741737692,359.5679068339199,-6.590507586319984,-7.167577870821146,-6.382364411852469,389.30599479964604,384.22481429449056,-7.121116584028703,-7.808722577645225,-6.817546556849149,321.02743202356265,316.21368530511614,-5.737184147755246,-6.320610544807677,-5.568228153000814,544.4809343226134,544.9903372386437,-10.618786961605085,-10.81073047493278,-9.587578253898634,356.26611617299403,351.92208119309805,-6.544045188488348,-6.98193348426434,-6.225331918003565,546.7448127567974,546.6410442819082,-10.630952377288304,-10.901272987196762,-9.633863633467588,576.1095939401382,578.8092036182951,-11.480781215473518,-11.78939873537954,-9.940141566946759,382.1719221749274,377.7675710118294,-7.093990087607629,-7.753999995475465,-6.605144436997297,525.8438694828644,526.0065030182278,-10.0040342936056,-10.42812234056673,-9.290826269505196,468.81156971943244,469.0613136165736,-9.046631358087634,-9.278985449585514,-8.174883643523268,398.69588961168506,393.3902132484891,-7.30848668896287,-8.096258918803594,-6.959579189703377,553.8534302281373,553.6158941778975,-10.77473457548719,-11.078585033969372,-9.7572953464187,371.3949770943516,366.9459594518708,-6.747308262511917,-7.191529081209086,-6.573425078045339,614.1732889334006,616.7948114915407,-12.372954292974088,-12.755411891846528,-10.554559597946449,435.62602723692135,429.92067533439575,-8.186709400118847,-9.257753725774652,-7.466424480556664,652.0324514438298,654.9392940589862,-13.198298172807924,-13.791559984338889,-11.134950163273448,580.0842746457223,580.426664134752,-11.283887232925828,-11.614064808436535,-10.238338306223257,587.5701272522599,589.9863202130987,-11.481144662600261,-11.613835464830512,-10.379947080987685,333.84956045084226,329.56462111920774,-6.013515016821348,-6.542571311969513,-5.80874998623873,580.0668757392071,579.8868221200071,-11.252464741873768,-11.594383026314755,-10.266022765889094,577.3256231260841,579.049235677054,-11.308529843360644,-11.869607533185452,-10.001426100839115,533.6846404464424,535.0240384034175,-10.552526205163156,-11.014307867387782,-9.153689061089665,592.6255051300325,595.4892944830278,-11.843356009658631,-12.273928905432298,-10.177921453086261,515.4679331210915,515.9245906979424,-9.939089056673229,-9.867652800974225,-9.210506975332041,531.7077663130111,531.9993429373731,-10.420988248689204,-11.129320867408405,-9.095142940939352,360.2675384447453,355.6766743671174,-6.5580743808746575,-6.988234368289519,-6.351504871381815,403.43752162253776,398.13004328363587,-7.579147401877975,-8.369162036152588,-6.941838088281564,562.7263331032117,564.8317628622043,-11.13130372532317,-11.353290263471363,-9.788590847280858,596.8314598846168,599.0850129628473,-11.924214399711678,-12.2100948534321,-10.3381218721372,572.0733738553566,573.9749264147862,-11.403907040983084,-11.743734287110804,-9.869337532900182,416.34988088426223,415.43977370286495,-8.028326043210356,-8.208025900651192,-7.212797723914153,543.8862905127241,545.9388875380457,-10.810374235128522,-10.861443481513918,-9.470924094003333,577.4363912422657,579.9033388080935,-11.693903655308752,-12.147559208846847,-9.79622680547542,484.5015630504371,484.7116968173455,-9.323041053195453,-9.702728751276602,-8.434005689993027,370.86540619586657,366.13955400794765,-6.721271306525824,-7.498250753978426,-6.4381671715618225,541.6620298365659,543.0508313647842,-10.697240291713587,-11.149499100040991,-9.317064560945425,364.87294718603766,360.0800078845526,-6.560016983619469,-7.105775274579967,-6.449992658422955,361.47551138382755,356.9741550539491,-6.533901201591658,-7.2107144128200575,-6.296134538707594,488.4601312622942,488.4440545899482,-9.422303456307512,-9.811937317782851,-8.498892696136373,519.475461750626,520.0168899833659,-10.11688361593551,-10.517412527117935,-9.02348050175402,382.1973773283061,377.24996439850116,-6.977334385829817,-7.631410530872614,-6.694114843898038,427.41254385280246,422.2326575691528,-7.928056450803523,-8.671828051631138,-7.493250535083744,534.639120485014,536.1204522716283,-10.382991672063202,-10.766371688306238,-9.31620474246412,380.3155539743149,375.8670303781077,-6.854830691786303,-7.702561194777502,-6.613801291985119,488.52844047556704,487.9486833780367,-9.220414543803953,-9.586440170698928,-8.649149050272017,464.24901503803426,464.6802155005551,-8.959455544617075,-9.058536860813996,-8.137681803717031,549.9377160761742,549.9057718067115,-10.59023896164938,-10.866468784982048,-9.753694287510257,545.6286542952864,545.7257405093139,-10.648424501995773,-11.116436419822614,-9.498606433655347,377.37003719766534,372.46566356052114,-6.877140094366211,-7.564322778485765,-6.589284050850044,670.1007227840536,673.0268330239413,-13.215486477375617,-13.495935155456836,-11.820759991406568,458.57835814198853,458.3263649838695,-8.741673663024109,-8.910980457943698,-8.081877630665131,468.8370248728111,468.54370700324546,-8.929975656309823,-9.156395984982664,-8.263854050424008,608.4517217305975,611.4761742015113,-12.388483814936746,-12.85303441818193,-10.320814611093066,354.61428045521484,349.86266586517655,-6.371714990333756,-6.860359747541,-6.268016238664077,572.9502020210036,573.9694208520907,-11.256760736504756,-11.559342226266773,-10.025936186371407,456.56797260831524,456.876724759226,-8.874869601157846,-9.2908541692918,-7.817706237047501,483.8801776743806,483.5231144591849,-9.303705151784891,-9.571806946889554,-8.489375315995973,638.4814058261807,640.8052572871078,-12.53299290738912,-12.679219923856483,-11.323857352126032,502.447378568762,503.0702356894549,-9.759694356816365,-10.3592858119563,-8.622758249465162,493.89145786247616,493.87709577134416,-9.51041115812962,-9.99026509243497,-8.576038322847257,584.205807693307,586.6326510826286,-11.862790921142183,-12.060270396969514,-10.0149726380054,515.7481675877692,518.2627901741259,-10.295373585424182,-10.519703835554495,-8.820597175385117,527.4621938004013,529.6409735875504,-10.441098386367878,-10.81455678861755,-9.042516675377366]},"inputs_cnt":5,"units":5,"weights":{"v":1,"dim":[5,5],"data":[9.543830117999759,48.30851974760911,22.828787784638312,31.52393040460587,8.266614186868509,8.081099213420275,47.8781994849495,21.921845321742836,32.448363217649096,10.304065685136798,0.4546904322706052,-1.0019429146360626,-0.4358790673527996,-0.44519795086826197,-0.8616509907729608,0.6808167906912526,-0.6708775238684924,-1.102242943857599,-0.681034802663586,-0.6078686836167065,0.12017315971159462,-1.0483079304799339,-0.18600919903117683,-0.5854470680776538,0.21342160330256219]},"optimizer":{"Momentum":{"learning_rate":0.1,"momentum":0.9,"velocity":{"v":1,"dim":[5,5],"data":[0.0068036461643872,0.0351184412014219,0.01601437764700519,0.02343780977795846,0.007435597972458029,0.005942702939420631,0.03519110514872832,0.016354741650285932,0.02344198378228588,0.006989045529175881,-6.505526349456239e-48,-4.425116932521359e-47,-3.137861382071972e-47,-2.5732638391026983e-47,-1.2568420539710984e-47,-4.409654140842536e-48,-4.564930396962641e-47,-1.4636799937409043e-47,-5.940236602071163e-47,-2.5497216795057923e-47,-8.424094712721248e-48,-5.784006344490309e-47,-1.946455569929637e-47,-6.004328962040186e-47,-2.1640075755605284e-47]}}},"activation_fn":"Softmax"},{"type":"dense","input":{"v":1,"dim":[149,6],"data":[1.0,0.17151787243532818,0.8284821275646718,1.249547479060908e-242,1.0373246033268662e-242,4.566391268236921e-242,1.0,0.2577500324997351,0.7422499675002648,4.75922595578138e-245,3.2674505199471938e-245,1.2559058436196316e-244,1.0,0.10167232195639349,0.8983276780436065,2.5047890014777217e-235,1.72417055608604e-235,1.0143024329423649e-234,1.0,0.7311857096676359,0.26881429033236415,1.4737574657284751e-205,1.2175267797449275e-205,2.781192290601023e-205,1.0,0.43940372749166023,0.5605962725083398,7.408046544119055e-251,5.2244184852722584e-251,2.1877058563824615e-250,1.0,0.1003777695773263,0.8996222304226736,1.102012817755523e-229,7.14177373690355e-230,5.2885130841621186e-229,1.0,0.9943938718546209,0.005606128145379007,3.0843316511667577e-168,1.390221677950711e-168,4.385001281671139e-168,1.0,0.5385468458550617,0.46145315414493826,4.209961890029255e-217,2.4143749157680148e-217,1.119508486707419e-216,1.0,0.25153399682381306,0.7484660031761868,1.5463025066684397e-228,1.764743725978997e-228,3.8385235664464573e-228,1.0,0.4106253154299191,0.5893746845700809,5.470688726169654e-251,4.637776371340497e-251,1.321227918312447e-250,1.0,0.9970686016278947,0.0029313983721053986,1.481404966688218e-178,4.868439633957338e-179,2.0937895962524194e-178,1.0,0.9917800668664422,0.008219933133557872,4.843158024299546e-162,2.8061367107292697e-162,5.406442605471669e-162,1.0,0.05167729335123092,0.948322706648769,7.738788030710949e-268,5.546531163011704e-268,5.300880186320242e-267,1.0,0.11636187826034927,0.8836381217396508,8.400151315403183e-268,6.24901031938195e-268,4.246658978078618e-267,1.0,0.988661079446113,0.011338920553886918,5.916933982382498e-148,3.339127043931315e-148,7.550360688940536e-148,1.0,0.39220028840139926,0.6077997115986007,9.22331450681908e-245,5.115066906398463e-245,3.2480290417143875e-244,1.0,0.4124867334333407,0.5875132665666594,6.890981761742611e-223,4.247136382571903e-223,1.64039913296892e-222,1.0,0.9954821191261155,0.0045178808738844745,1.5370603195286587e-176,8.947174603877225e-177,2.1118874097193013e-176,1.0,0.15676595827781561,0.8432340417221843,1.28309996493736e-309,6.42009598275577e-310,5.757678973444086e-309,1.0,0.6484134306412994,0.35158656935870053,7.944256476905507e-185,6.664442500950757e-185,1.4776795289113943e-184,1.0,0.9946104175002125,0.005389582499787484,3.590334439580173e-175,1.396598972891247e-175,5.193396601936312e-175,1.0,0.9752111966717746,0.02478880332822542,1.9850314743704566e-143,1.8935724987433492e-143,2.3569621122348216e-143,1.0,0.6337238714633304,0.3662761285366696,4.274499583022541e-202,3.6022753896393207e-202,7.530645211555244e-202,1.0,0.6285450195305572,0.37145498046944286,4.3449599503974397e-209,2.9968393370412817e-209,1.2087542157502145e-208,1.0,0.16415211256043863,0.8358478874395614,1.5216489941960624e-255,9.707156220233314e-256,7.525994827512673e-255,1.0,0.05198577010732288,0.9480142298926771,1.3567953193236957e-257,1.0221275078564927e-257,7.051726244257425e-257,1.0,0.9834958221119022,0.016504177888097896,1.3640600548531652e-171,6.939022023909861e-172,2.827273283701369e-171,1.0,0.44610750475194644,0.5538924952480536,8.767631263399824e-226,5.706157712287334e-226,2.811119828036823e-225,1.0,0.07841986570595672,0.9215801342940433,8.159356471251627e-257,4.147228209935278e-257,5.694376585965724e-256,1.0,0.9902517316909465,0.009748268309053433,4.683731364246644e-158,2.1672263446156503e-158,7.185242812258432e-158,1.0,0.5755757093822413,0.4244242906177586,5.575499537689965e-215,5.902258009650345e-215,8.753594223509707e-215,1.0,0.9952682427945788,0.004731757205421174,3.4078375336292556e-179,1.602255373326523e-179,4.808325686755677e-179,1.0,0.9953944974871419,0.004605502512858125,3.973166385181023e-154,1.7239189615997537e-154,6.086443597817094e-154,1.0,0.030062933164873355,0.9699370668351267,1.7717760935821773e-267,9.086954050478641e-268,1.3682572752207527e-266,1.0,0.9931470385617494,0.006852961438250576,3.0871906355023035e-166,1.5620327645329722e-166,4.833938747917283e-166,1.0,0.9928800339176628,0.007119966082337235,8.812326915968246e-185,3.639339292819612e-185,1.575820518772677e-184,1.0,0.11501060983146445,0.8849893901685355,1.5564780645192756e-254,9.588031214914709e-255,5.42038570767256e-254,1.0,0.9893656536031524,0.010634346396847589,3.96700184128323e-180,1.512570665390159e-180,6.821592621954199e-180,1.0,0.04958640397032865,0.9504135960296713,6.652481990028388e-300,5.651713293726689e-300,2.2501317346036815e-299,1.0,0.5386730924836205,0.46132690751637956,1.1851888491990664e-184,1.1583319700628921e-184,1.988737861383191e-184,1.0,0.042819411789498475,0.9571805882105014,1.078872134787074e-238,7.887645167756854e-239,7.667734273820517e-238,1.0,0.14794830892676208,0.8520516910732379,2.903639724704607e-282,1.7953227966341436e-282,9.883228064768417e-282,1.0,0.2313008041671639,0.768699195832836,1.335449690830608e-237,7.125587640316887e-238,5.712836734939193e-237,1.0,0.659206816708353,0.34079318329164704,1.0903045019111583e-183,8.278288760288034e-184,2.0890080954483178e-183,1.0,0.9925469064162759,0.00745309358372407,6.103104338504899e-179,3.3430168623738407e-179,7.768349819783886e-179,1.0,0.20754698421227585,0.7924530157877241,1.5714264672701597e-276,1.1061519472994844e-276,4.220355109881462e-276,1.0,0.10362375358951274,0.8963762464104872,1.7533218790863657e-264,1.472840876861977e-264,1.1462368711090388e-263,1.0,0.16263651158740672,0.8373634884125932,2.2029227815065717e-231,2.091313614372279e-231,5.145665261428239e-231,1.0,0.07918462856078709,0.920815371439213,1.3717510601229e-310,6.296755294501e-311,7.385778276199e-310,1.0,0.9976950444395261,0.0023049555604738787,1.2783659886701947e-186,6.030139484280867e-187,1.9904154346225694e-186,1.0,0.9919341543476219,0.008065845652378105,1.4414494430627954e-173,6.455970822137109e-174,2.5570242659561584e-173,1.0,0.9885701541421752,0.011429845857824807,5.100481653691311e-156,2.744599876061168e-156,6.428723953467096e-156,1.0,0.5555680800976998,0.44443191990230024,5.658386583773039e-236,4.3121945452455165e-236,1.3749895281314264e-235,1.0,0.9939794400682535,0.006020559931746583,3.516660306056682e-174,1.436584322412809e-174,5.74417622557959e-174,1.0,0.24140446454180314,0.7585955354581968,2.8371269081431183e-239,2.4937644695802645e-239,7.143750390765824e-239,1.0,0.07626531424772445,0.9237346857522756,3.416323737466289e-278,2.5796905893896285e-278,1.5559142660528051e-277,1.0,0.983050622413281,0.016949377586719126,1.0537001088760104e-172,6.0280317048071446e-173,1.8312749034256982e-172,1.0,0.3298340528916861,0.6701659471083139,2.2366196993573562e-219,1.1493092732931417e-219,7.036949550756587e-219,1.0,0.9926529936415366,0.00734700635846329,3.291762795714851e-165,1.8120532854408307e-165,4.341922376167713e-165,1.0,0.9941216535250414,0.005878346474958627,2.284111519564083e-169,1.1375175149892402e-169,3.1525402534539633e-169,1.0,0.9973692162574226,0.0026307837425774225,5.4000360318026826e-185,1.9256204381519706e-185,8.714601638650786e-185,1.0,0.9905248938429374,0.009475106157062615,5.669730088417509e-150,2.8003929321126714e-150,7.60565778673373e-150,1.0,0.9916630415787202,0.008336958421279728,2.158033046347449e-156,1.177195629141944e-156,2.85490503020919e-156,1.0,0.42645887223218965,0.5735411277678104,3.0895528550141324e-235,1.9059978889918955e-235,8.333202212898281e-235,1.0,0.9904649761466012,0.009535023853398855,1.2194117699129365e-155,6.285222855390291e-156,1.5981098298842468e-155,1.0,0.9938362989462721,0.006163701053727821,1.691483496117105e-170,9.307356644035416e-171,2.266448127002874e-170,1.0,0.09472520704074225,0.9052747929592578,9.912303366571035e-286,7.208502308949072e-286,2.987370645325766e-285,1.0,0.05580673901440846,0.9441932609855915,9.793094168628104e-295,9.052221606152346e-295,5.229530112608324e-294,1.0,0.9928024732951547,0.007197526704845277,9.162796163766752e-170,4.68048048951505e-170,1.4081897257439567e-169,1.0,0.3823737747514976,0.6176262252485023,1.1609112219790236e-235,7.476930544457505e-236,3.01142913777257e-235,1.0,0.0989190507730936,0.9010809492269065,8.958904576681518e-270,5.086471846741509e-270,4.607581208380671e-269,1.0,0.41945836118841345,0.5805416388115866,8.480287836916145e-215,5.579175143263136e-215,1.7652407694563423e-214,1.0,0.17027839889651028,0.8297216011034897,1.8032066533531988e-245,1.1471201419847594e-245,3.825124125285876e-245,1.0,0.14364338104462648,0.8563566189553735,8.805273845418193e-205,5.629113747002355e-205,3.1025890883147257e-204,1.0,0.5766119019953437,0.42338809800465627,3.3317020392469705e-220,1.8806448881599607e-220,7.809460309893247e-220,1.0,0.05470987960539178,0.9452901203946082,9.947713128754528e-275,6.262698610375787e-275,5.987889235400551e-274,1.0,0.9933087820625204,0.006691217937479631,2.005205670071191e-161,1.2368746826576283e-161,2.6530328017511933e-161,1.0,0.05680500043895679,0.9431949995610432,2.888918906066035e-262,1.485088933668691e-262,2.1728009758983703e-261,1.0,0.14538054427222533,0.8546194557277746,2.4638651527531502e-258,1.5533230730408504e-258,8.839334325878024e-258,1.0,0.543363800997868,0.45663619900213204,1.4802813342990983e-215,1.1819706262891886e-215,3.2141087326618326e-215,1.0,0.9917800668664422,0.008219933133557872,4.843158024299546e-162,2.8061367107292697e-162,5.406442605471669e-162,1.0,0.5342253177306197,0.46577468226938035,1.0367685477102594e-231,7.394887470833211e-232,2.5428210793590633e-231,1.0,0.9907051013669748,0.009294898633025236,5.851758403083595e-177,3.5351019228437503e-177,9.497862314842054e-177,1.0,0.19235562846663234,0.8076443715333677,4.615904910441265e-240,3.550939158650962e-240,1.7621118477945588e-239,1.0,0.01924838105143361,0.9807516189485664,2.9394250110595387e-302,2.937100309154844e-302,1.2696112045717287e-301,1.0,0.5697121198357508,0.4302878801642492,2.266945610869648e-224,1.794648820407309e-224,5.682112286996349e-224,1.0,0.988498018803199,0.011501981196800947,1.0969675183547814e-161,6.159923630521462e-162,1.350794240567616e-161,1.0,0.9938257870211452,0.006174212978854811,6.779588128123717e-173,3.4086296843219025e-173,9.184216190644682e-173,1.0,0.9919479723617091,0.00805202763829101,1.2145606586093718e-142,6.7770446154119005e-143,1.4381224494801697e-142,1.0,0.3753335063795491,0.6246664936204509,3.1453680880724415e-242,2.596040524569515e-242,8.821038705454693e-242,1.0,0.9871823921749822,0.0128176078250179,2.678837333103395e-158,1.7289159155568091e-158,3.684357444733604e-158,1.0,0.5259188652572092,0.47408113474279073,4.525844260999535e-243,3.4538291940176155e-243,1.2266756509030342e-242,1.0,0.06299639198529122,0.9370036080147088,4.09315439923181e-257,3.0062648652656685e-257,1.910510483287253e-256,1.0,0.9879235872476817,0.012076412752318248,8.683317198446041e-170,4.4879396156986675e-170,1.4157567290610294e-169,1.0,0.4594309964841295,0.5405690035158706,8.839598568374333e-234,5.784335094083218e-234,1.8037438037714542e-233,1.0,0.4378865357598704,0.5621134642401296,1.28878873518861e-208,1.0215782351109561e-208,3.081604882005288e-208,1.0,0.9950611730055865,0.004938826994413473,4.703157520355475e-177,2.139264046010027e-177,6.666810737329976e-177,1.0,0.5591063585375393,0.4408936414624608,3.4087733824960367e-246,2.5155766365645094e-246,9.429016003766083e-246,1.0,0.9884450329509608,0.011554967049039175,5.88633017207603e-165,3.775043568712754e-165,7.004241731510167e-165,1.0,0.0677660444587956,0.9322339555412045,5.314177373528729e-274,3.62524048371717e-274,3.2745741409944745e-273,1.0,0.9966829335386974,0.0033170664613024863,1.7911604944195067e-193,6.137420243127631e-194,3.6808682072961074e-193,1.0,0.0518163428974228,0.9481836571025771,6.433140065140747e-291,3.554452182291211e-291,5.064349411859652e-290,1.0,0.4152291586310554,0.5847708413689445,6.171040067181482e-258,4.435719419175e-258,1.7556360727061697e-257,1.0,0.08194620747434349,0.9180537925256564,5.608763000407886e-262,4.9117946979672234e-262,1.686984616721721e-261,1.0,0.9864127005051964,0.01358729949480373,2.4740038838947752e-148,1.4575858630715147e-148,3.036188283083664e-148,1.0,0.5448921891463624,0.4551078108536376,8.503230834173873e-258,6.040748360244239e-258,2.2802910136927512e-257,1.0,0.15140642925541742,0.8485935707445825,3.464015469579129e-257,1.9765457820506816e-257,1.2801114008153594e-256,1.0,0.20760908174896803,0.792390918251032,9.07920922181709e-238,5.721353690026118e-238,3.6775219779032924e-237,1.0,0.053972889473406865,0.9460271105265932,1.6393994823200226e-264,1.0658334866920898e-264,8.669096383765377e-264,1.0,0.38777903842893907,0.612220961571061,2.553958549164428e-229,2.7430783726095126e-229,5.292160682355537e-229,1.0,0.42761792720906716,0.5723820727909329,1.5400304814349685e-236,7.584105560090223e-237,5.7987798058563955e-236,1.0,0.9899577798730714,0.01004222012692872,4.8448150443418496e-160,3.1510920731921366e-160,5.95647331081307e-160,1.0,0.9950700208026234,0.004929979197376547,3.1302737158590115e-179,1.4206376435981865e-179,5.920552448120491e-179,1.0,0.10857019643337895,0.891429803566621,6.493899316691184e-251,5.201133753601111e-251,2.4867856043157073e-250,1.0,0.09504342400829686,0.9049565759917032,3.969098755081611e-266,2.9821920023440904e-266,1.938755921273411e-265,1.0,0.1299328561732825,0.8700671438267175,5.161258082498296e-255,3.6742650199269556e-255,2.394476865653658e-254,1.0,0.7130220948806333,0.28697790511936677,3.5317461404372685e-185,2.95084788750959e-185,7.983051447589724e-185,1.0,0.1137902292283908,0.8862097707716091,1.4269354983218374e-242,1.355892474377097e-242,5.446533099364815e-242,1.0,0.07820800660644453,0.9217919933935556,1.0894693594335664e-257,6.9214154322820225e-258,7.267174771226714e-257,1.0,0.44765901493201493,0.5523409850679851,1.5333692313941778e-215,1.048939578119613e-215,3.7303527101017884e-215,1.0,0.9912147078144817,0.00878529218551826,1.0288623098676346e-164,4.730634246991484e-165,1.3655506763911555e-164,1.0,0.1995991549698643,0.8004008450301356,2.5916458431147235e-241,1.6487778660511513e-241,1.0303347735817117e-240,1.0,0.9917800668664422,0.008219933133557872,4.843158024299546e-162,2.8061367107292697e-162,5.406442605471669e-162,1.0,0.9890277857903701,0.010972214209629887,1.4816694231763967e-160,7.530348501444897e-161,1.879369040193684e-160,1.0,0.5040190815227592,0.4959809184772409,2.98437191104203e-217,2.0213294695495375e-217,7.514241373561409e-217,1.0,0.3678554015203143,0.6321445984796857,3.686751678327402e-231,2.4699968002622012e-231,1.1002790039179401e-230,1.0,0.9929483213845129,0.0070516786154870385,9.560857652506908e-170,4.9709018907736194e-170,1.2691049453730856e-169,1.0,0.9944028578869252,0.005597142113074817,8.541652587138959e-190,4.05999969961226e-190,1.3193976717535228e-189,1.0,0.18522634506226837,0.8147736549377317,3.6949360998679135e-238,2.518297918953819e-238,1.0737584857332286e-237,1.0,0.9884393888643709,0.0115606111356292,7.062987321513795e-169,3.025685242806502e-169,8.988064182157063e-169,1.0,0.6410115125647727,0.3589884874352272,4.337951787861539e-217,3.008304621900302e-217,7.68037052904806e-217,1.0,0.3938397086663707,0.6061602913336294,1.2119701890651975e-206,1.0976439012310055e-206,2.7566633900844186e-206,1.0,0.5079853883288349,0.49201461167116517,1.869189767896285e-244,1.4180394299261257e-244,4.314794642721899e-244,1.0,0.4757474933054514,0.5242525066945486,1.228317891501233e-242,7.692292401287408e-243,3.878559158887433e-242,1.0,0.9926404785846594,0.007359521415340521,1.3193596452725708e-167,6.636262380811049e-168,1.75945226085514e-167,1.0,0.050877830830394564,0.9491221691696055,8.832212503534137e-299,6.672248248009141e-299,3.5628006779309584e-298,1.0,0.5626670240794259,0.43733297592057413,6.247990602721269e-204,5.274865142174531e-204,1.2086098899054812e-203,1.0,0.5728082076063332,0.42719179239366667,1.8468739980919217e-208,1.4726656860494664e-208,3.5952591866855656e-208,1.0,0.04633333726618329,0.9536666627338166,1.0924917606436842e-271,6.865408869217678e-272,8.637647883594022e-271,1.0,0.991436234029528,0.008563765970472093,1.6673966348632944e-157,1.0228764951637549e-157,1.8495867957011235e-157,1.0,0.26517959069526487,0.7348204093047351,5.077850154982392e-255,3.7520654852510235e-255,1.7386821328045633e-254,1.0,0.4234193538614092,0.5765806461385907,3.072647161275385e-203,2.0269959905425472e-203,8.84367771894069e-203,1.0,0.5883293358358016,0.41167066416419845,3.824561325795632e-215,2.9251389374257164e-215,8.634567387193784e-215,1.0,0.08916676354011076,0.9108332364598893,1.6528825469795077e-284,1.4280269629948103e-284,5.538126779395263e-284,1.0,0.34913192314544095,0.650868076854559,1.2424650964067576e-223,6.821579375464815e-224,3.873015856053802e-223,1.0,0.5035904610662797,0.4964095389337203,1.1951532580926983e-219,7.396490162282085e-220,3.042401777555075e-219,1.0,0.08114852399394494,0.918851476006055,1.0964211659376393e-260,8.999391890832815e-261,6.957844118948128e-260,1.0,0.07483941893230729,0.9251605810676927,2.6080939669772608e-230,2.08400062452597e-230,1.1397523372097197e-229,1.0,0.10167232195639349,0.8983276780436065,2.5047890014777217e-235,1.72417055608604e-235,1.0143024329423649e-234]},"output":{"v":1,"dim":[149,3],"data":[-7.695579843655448,2.7246712377948823,4.291413347826928,-6.164635163518933,2.778295785310223,2.692406810550498,-8.935600664855631,2.6812369084495975,5.586562300747404,2.2406260615932356,3.0727076839195755,-6.086530678733572,-2.939599889355396,2.891259408060205,-0.6760052250004822,-8.9585838311872,2.6804318748575997,5.610567239455063,6.913559400705979,3.2363869723553447,-10.96721059777021,-1.1794372131887823,2.9529127965121047,-2.5144202000010303,-6.274993140664395,2.774430265761466,2.8076710191046965,-3.450524778814178,2.873363192496681,-0.14236593097388184,6.961045898946748,3.238050286526189,-11.01680822340916,6.867154546199517,3.2347615450242926,-10.918742702959944,-9.82320017551591,2.6501468744649923,6.513622199412448,-8.67480587483402,2.6903717928061117,5.3141732461050095,6.811780806344236,3.2328219636778863,-10.860907189259903,-3.7776382025022253,2.8619053589387105,0.19929011296718446,-3.417477618825142,2.8745207385687714,-0.17688228257463123,6.932879876613381,3.2370637125352864,-10.987390012271637,-7.957481719758355,2.715497575427027,4.564958706746211,0.7711072632296356,3.021234706711471,-4.551680859715637,6.917403899137625,3.2365216339740797,-10.97122601269964,6.572994876982687,3.2244579858142965,-10.611505452533077,0.5103124221834969,3.0120998205677165,-4.279291751780295,0.41836835155170427,3.008879286704985,-4.183260084593644,-7.826349743043364,2.7200907478697482,4.427996940110363,-9.817723554631867,2.6503387045948656,6.507902102070338,6.720078090890512,3.229609883786342,-10.765127607280867,-2.8205826674072307,2.895428235814931,-0.8003136460772167,-9.34841908631376,2.666777077638,6.017733565904303,6.840020857276001,3.233811130675672,-10.890402720116631,-0.5220358262109377,2.975939658533991,-3.201047959338769,6.929082768530636,3.2369307108628904,-10.983424094543953,6.9313242634645125,3.2370092239229287,-10.98576524056905,-10.206936240078635,2.6367057141837087,6.914418180995412,6.8914234273601505,3.2356116134740716,-10.94409051606628,6.88668309220989,3.235445573295872,-10.939139437825183,-8.698795964043109,2.6895314896290072,5.339229872887733,6.8242896436118565,3.2332601119317865,-10.873972137212737,-9.860321314219329,2.6488466287460892,6.55239364832765,-1.177195861421266,2.9529913045574414,-2.516761196494956,-9.980460838406469,2.644638490002193,6.6778742663101305,-8.114028109820044,2.7100142098677504,4.728464746084841,-6.634208294694379,2.7618480017871767,3.1828559536324983,0.962730399744752,3.027946708864402,-4.751823067305896,6.880768828022673,3.235238413791652,-10.932962240685898,-7.055927804743702,2.747076391683819,3.6233240268523286,-8.900955424899415,2.682450430623401,5.550376822660397,-7.853257352050721,2.7191482524442367,4.456100792106769,-9.334841673625801,2.6672526549865925,6.003552536420331,6.972167611416439,3.23843984782551,-11.028424378568447,6.86989017765548,3.2348573662521245,-10.921599953544122,6.810166540735563,3.2327654206401415,-10.859221157560222,-0.8772463832981603,2.963497663964484,-2.8300456558189415,6.9062016801276584,3.236129252764379,-10.959525771886668,-6.454830379437394,2.768131089389691,2.995503358296813,-9.386670465968372,2.665437242859886,6.0576855033721655,6.712174124322893,3.2293330307842285,-10.756872250718338,-4.884873094941691,2.8231221351745646,1.3557498167583084,6.882652274674387,3.2353043854598496,-10.93492942052445,6.9087265030585785,3.2362176899815975,-10.962162841941769,6.966382937558596,3.2382372274943023,-11.022382533010788,6.844870511315662,3.233980999977193,-10.895467977283376,6.86507690786197,3.234688771385115,-10.916572698173397,-3.169419683731668,2.883209487874717,-0.4359682345258067,6.843806747188873,3.233943739408146,-10.894356920943506,6.903660387655774,3.2360402386669547,-10.956871500097229,-9.058938044024487,2.6769167581296864,5.715382942107193,-9.749887007143082,2.6527148219107213,6.437049716410551,6.885306099886747,3.235397341252469,-10.937701227970146,-3.9520957225895046,2.855794618494128,0.3815035650376535,-8.98448156808127,2.6795247523203622,5.637616323025208,-3.293705044700258,2.8788561325045365,-0.3061574665372371,-7.717585153727768,2.7239004556687396,4.314396957304768,-8.190456746590876,2.7073371366088494,4.808291203185034,-0.5036395159777141,2.9765840278733986,-3.2202621221405674,-9.769360380833797,2.6520327261653227,6.45738882613691,6.894294981915516,3.235712195693466,-10.947089732540755,-9.732164117954683,2.653335603266,6.418538913218663,-8.159615575503025,2.7084174132941454,4.776078913069931,-1.0939181696576066,2.955908280328604,-2.603741199931469,6.867154546199517,3.2347615450242926,-10.918742702959944,-1.2561605666016327,2.9502254001848534,-2.4342859239160326,6.848069871624387,3.2340930642804433,-10.898809572910654,-7.325631419328834,2.7376294570668938,3.9050179694513876,-10.39893515340475,2.6299805496600417,7.1149528714657775,-0.6261365609716005,2.9722933120199833,-3.0923191740486717,6.808885867569393,3.2327205623771733,-10.857883548963786,6.9034737615079536,3.2360337016948084,-10.95667657703158,6.8701354992981365,3.2348659591570508,-10.921856181555121,-4.077086925439088,2.8514165395320523,0.5120515548191689,6.78552855417251,3.231902423499699,-10.833487829576,-1.4036312923201617,2.9450599287991013,-2.2802590295805683,-9.622243666658747,2.6571857975544715,6.303731681786301,6.79868755022045,3.2323633449281366,-10.847231840693878,-2.584040653696876,2.903713615827783,-1.0473717084427765,-2.9665357403046935,2.89031592340146,-0.6478718754981418,6.925406502139559,3.2368019419241265,-10.979584390818292,-0.8144286532277536,2.9656979866767754,-2.895656100365174,6.807945169707412,3.2326876124620965,-10.856901030097868,-9.537564423149627,2.6601518656143,6.21528781722378,6.9541988420133025,3.2378104540001464,-11.009656763960798,-9.82073152387992,2.6502333441648256,6.5110437978833655,-3.3687892725749977,2.8762261499861856,-0.22773518728978903,-9.285813276988993,2.6689699773818187,5.952344463554206,6.771863636509262,3.2314237811058666,-10.819215404870931,-1.0667835402644235,2.956858727619146,-2.632082165055304,-8.052633487251473,2.71216468525581,4.664340676734399,-7.054825340264355,2.7471150078138624,3.622172549641909,-9.782444723392684,2.6515744196318733,6.471054864863899,-3.8561319932159943,2.8591559493327314,0.2812735354352851,-3.1488421051402113,2.8839302607120674,-0.4574606392586311,6.834802108592722,3.233628333060338,-10.884951959309115,6.925563583764261,3.2368074440374013,-10.979748455887426,-8.813137488392199,2.6855264379867183,5.458654726893589,-9.053288497808284,2.67711464533191,5.7094822316180665,-8.433870051997884,2.6988110751965584,5.062526037177313,1.9181536869079543,3.0614124128343048,-5.749722012879729,-8.720462302803751,2.6887725806838123,5.361859441262486,-9.352180380952493,2.6666453304065745,6.021662078014501,-2.793037535120397,2.896393061830068,-0.8290833639960011,6.857117299859877,3.2344099694250903,-10.908259226501533,-7.197031621326928,2.742133934640702,3.7707009556719333,6.867154546199517,3.2347615450242926,-10.918742702959944,6.818291221095452,3.2330500046056225,-10.867707040281724,-1.79243469675019,2.9314412743137384,-1.8741704272520314,-4.209851370203055,2.8467661864729474,0.650718364828613,6.887895451195404,3.235488038711421,-10.940405695168451,6.913718936525809,3.23639256043195,-10.967377226141666,-7.452202973293673,2.733196022993317,4.0372165686881445,6.807844965974457,3.2326841026162425,-10.856796371565046,0.6396954199730014,3.0166317313563034,-4.414426784392571,-3.74853233606804,2.8629248529399147,0.1688902746809271,-1.722017855747767,2.933907771820283,-1.947717819628867,-2.294361559627913,2.9138602334983292,-1.3499291888915685,6.882430085415375,3.2352966028151653,-10.934697353303287,-9.837393637587702,2.649649718694995,6.528446666249069,-0.7512134680227764,2.9679122310885417,-2.961681669877514,-0.5711693758973926,2.974218652932715,-3.149730058589258,-9.91807546488795,2.646823668519687,6.612715399774437,6.8610502221035325,3.234547728273249,-10.912366996337898,-6.032732604349414,2.782915949019176,2.5546402033490248,-3.2233825495168666,2.881319325350945,-0.3796063187229386,-0.29561106128630943,2.983870660694218,-3.4375389860971466,-9.157621290515996,2.673460170501726,5.818453391553816,-4.542263426102545,2.8351227572115683,0.9979086045212631,-1.8000443195075793,2.9311747313207595,-1.8662225002673756,-9.29997515441195,2.668473927930374,5.967135941569857,-9.411985462669593,2.6645505320197955,6.084125939621482,-8.935600664855631,2.6812369084495975,5.586562300747404]},"inputs_cnt":6,"units":3,"weights":{"v":1,"dim":[3,6],"data":[-1.8127807368877145,8.828147542564924,-8.931509134760296,-0.24507583482429113,0.31369918302485633,0.14210215995465603,1.391155719627568,1.8501312248553716,1.2276653462824247,0.24074013367007957,0.5634693359795424,-0.328370668654989,-1.5377026960858675,-9.537153877651265,9.012392405239153,-0.43323582544395206,-0.3168044271503312,-0.08630894794939671]},"optimizer":{"Momentum":{"learning_rate":0.1,"momentum":0.9,"velocity":{"v":1,"dim":[3,6],"data":[-0.00044869721320556764,0.0027262741722291197,-0.003174971385434687,8.237708131738684e-48,-1.5360151135595336e-47,-1.444734965434753e-47,0.0007413646713757025,0.0006723665353788205,0.0000689981359968818,-1.4086742699124228e-47,8.426858657573496e-48,9.400347157986504e-48,-0.00029266745817013896,-0.0033986407076079424,0.003105973249437804,5.849034567385515e-48,6.933292478021859e-48,5.047002496361019e-48]}}},"activation_fn":"Softmax"}],"optimizer":{"Momentum":{"learning_rate":0.1,"momentum":0.9,"velocity":{"v":1,"dim":[1,0],"data":[]}}},"loss_fn":"CrossEntropy"}