{"layers":[{"type":"dense","input":{"v":1,"dim":[149,5],"data":[1.0,4.8,3.1,1.6,0.2,1.0,4.9,3.1,1.5,0.1,1.0,5.1,2.5,3.0,1.1,1.0,6.7,3.3,5.7,2.5,1.0,6.4,3.1,5.5,1.8,1.0,4.8,3.4,1.9,0.2,1.0,5.7,4.4,1.5,0.4,1.0,5.5,3.5,1.3,0.2,1.0,5.8,2.8,5.1,2.4,1.0,7.3,2.9,6.3,1.8,1.0,6.0,3.0,4.8,1.8,1.0,5.1,3.3,1.7,0.5,1.0,6.9,3.2,5.7,2.3,1.0,6.9,3.1,4.9,1.5,1.0,6.3,2.5,5.0,1.9,1.0,5.2,3.5,1.5,0.2,1.0,6.8,3.0,5.5,2.1,1.0,4.6,3.2,1.4,0.2,1.0,4.8,3.0,1.4,0.3,1.0,6.7,3.0,5.0,1.7,1.0,5.1,3.8,1.6,0.2,1.0,6.2,2.8,4.8,1.8,1.0,5.0,3.5,1.3,0.3,1.0,6.5,3.0,5.8,2.2,1.0,6.1,2.6,5.6,1.4,1.0,7.7,2.6,6.9,2.3,1.0,4.8,3.0,1.4,0.1,1.0,6.1,3.0,4.9,1.8,1.0,5.7,3.8,1.7,0.3,1.0,5.4,3.0,4.5,1.5,1.0,7.6,3.0,6.6,2.1,1.0,6.0,2.9,4.5,1.5,1.0,7.0,3.2,4.7,1.4,1.0,5.6,2.8,4.9,2.0,1.0,5.9,3.0,4.2,1.5,1.0,5.6,2.5,3.9,1.1,1.0,6.4,2.9,4.3,1.3,1.0,6.1,2.8,4.0,1.3,1.0,5.0,3.2,1.2,0.2,1.0,5.8,2.6,4.0,1.2,1.0,4.9,2.5,4.5,1.7,1.0,7.9,3.8,6.4,2.0,1.0,5.8,2.7,5.1,1.9,1.0,5.4,3.9,1.3,0.4,1.0,7.7,3.8,6.7,2.2,1.0,6.1,2.8,4.7,1.2,1.0,5.7,2.9,4.2,1.3,1.0,5.6,2.7,4.2,1.3,1.0,5.2,4.1,1.5,0.1,1.0,7.2,3.6,6.1,2.5,1.0,5.0,2.3,3.3,1.0,1.0,4.7,3.2,1.3,0.2,1.0,6.2,2.2,4.5,1.5,1.0,4.5,2.3,1.3,0.3,1.0,5.1,3.5,1.4,0.2,1.0,5.7,2.6,3.5,1.0,1.0,5.8,2.7,4.1,1.0,1.0,6.0,3.4,4.5,1.6,1.0,6.8,3.2,5.9,2.3,1.0,6.5,3.0,5.5,1.8,1.0,5.7,2.8,4.5,1.3,1.0,6.7,3.1,5.6,2.4,1.0,6.1,2.9,4.7,1.4,1.0,7.7,3.0,6.1,2.3,1.0,5.0,3.0,1.6,0.2,1.0,6.7,3.3,5.7,2.1,1.0,5.6,3.0,4.5,1.5,1.0,6.0,2.2,4.0,1.0,1.0,6.0,2.7,5.1,1.6,1.0,6.8,2.8,4.8,1.4,1.0,5.2,2.7,3.9,1.4,1.0,4.4,2.9,1.4,0.2,1.0,6.3,2.7,4.9,1.8,1.0,6.5,3.0,5.2,2.0,1.0,5.1,3.8,1.5,0.3,1.0,4.7,3.2,1.6,0.2,1.0,5.2,3.4,1.4,0.2,1.0,5.8,2.7,3.9,1.2,1.0,5.5,2.3,4.0,1.3,1.0,6.4,3.2,4.5,1.5,1.0,6.0,2.2,5.0,1.5,1.0,5.7,2.5,5.0,2.0,1.0,4.9,3.1,1.5,0.1,1.0,6.6,3.0,4.4,1.4,1.0,5.4,3.4,1.7,0.2,1.0,5.0,3.5,1.6,0.6,1.0,5.4,3.9,1.7,0.4,1.0,6.3,3.3,4.7,1.6,1.0,4.9,2.4,3.3,1.0,1.0,4.3,3.0,1.1,0.1,1.0,7.2,3.2,6.0,1.8,1.0,5.1,3.5,1.4,0.3,1.0,5.0,3.4,1.5,0.2,1.0,5.5,4.2,1.4,0.2,1.0,4.6,3.6,1.0,0.2,1.0,4.6,3.1,1.5,0.2,1.0,5.5,2.4,3.8,1.1,1.0,6.4,2.8,5.6,2.2,1.0,6.9,3.1,5.4,2.1,1.0,5.5,2.6,4.4,1.2,1.0,6.9,3.1,5.1,2.3,1.0,5.0,2.0,3.5,1.0,1.0,5.8,4.0,1.2,0.2,1.0,5.4,3.7,1.5,0.2,1.0,6.6,2.9,4.6,1.3,1.0,7.4,2.8,6.1,1.9,1.0,7.2,3.0,5.8,1.6,1.0,4.9,3.0,1.4,0.2,1.0,6.3,2.5,4.9,1.5,1.0,5.4,3.4,1.5,0.4,1.0,6.7,3.1,4.7,1.5,1.0,6.3,2.3,4.4,1.3,1.0,5.5,2.5,4.0,1.3,1.0,6.4,2.8,5.6,2.1,1.0,6.7,3.1,4.4,1.4,1.0,5.6,3.0,4.1,1.3,1.0,6.7,2.5,5.8,1.8,1.0,5.6,2.9,3.6,1.3,1.0,6.2,2.9,4.3,1.3,1.0,6.5,3.2,5.1,2.0,1.0,6.7,3.0,5.2,2.3,1.0,5.1,3.7,1.5,0.4,1.0,5.8,2.7,5.1,1.9,1.0,5.0,3.3,1.4,0.2,1.0,5.3,3.7,1.5,0.2,1.0,6.4,3.2,5.3,2.3,1.0,6.3,2.8,5.1,1.5,1.0,5.0,3.6,1.4,0.2,1.0,4.6,3.4,1.4,0.3,1.0,6.3,3.4,5.6,2.4,1.0,6.2,3.4,5.4,2.3,1.0,5.9,3.2,4.8,1.8,1.0,6.5,2.8,4.6,1.5,1.0,4.9,3.1,1.5,0.1,1.0,4.4,3.2,1.3,0.2,1.0,6.3,3.3,6.0,2.5,1.0,5.7,2.8,4.1,1.3,1.0,5.7,3.0,4.2,1.2,1.0,5.1,3.8,1.9,0.4,1.0,5.5,2.4,3.7,1.0,1.0,7.7,2.8,6.7,2.0,1.0,5.0,3.4,1.6,0.4,1.0,4.8,3.4,1.6,0.2,1.0,6.4,2.7,5.3,1.9,1.0,6.1,3.0,4.6,1.4,1.0,6.3,2.9,5.6,1.8,1.0,7.1,3.0,5.9,2.1,1.0,4.4,3.0,1.3,0.2,1.0,5.1,3.4,1.5,0.2]},"output":{"v":1,"dim":[149,5],"data":[-3.2740008264887255,16.14659491974062,-0.3056374469864693,-2.726855312383513,-6.624244058177033,-3.1515441890285905,17.055682819220497,-0.1806675035531489,-2.7588477435455334,-6.571166443933076,-4.1787786733229595,7.107427125030223,-0.8376355089809802,-1.848965172461898,-7.8486483707088315,-7.074109279573541,-2.4913930119971663,-2.1254200553945797,-1.699444599012708,-11.980017603433868,-6.009521046417741,0.42267276236659335,-1.8198927904052216,-1.4893603883173645,-11.303149127615342,-3.5357571526142584,16.02814764054981,-0.5601741950773533,-2.8365969540593694,-7.068348485919729,-4.56670079817491,19.976227545168115,-0.5021325971972475,-3.8791483633586674,-7.9703109534220715,-3.614994313464755,19.03542042422659,-0.04082030546869214,-3.212765471044201,-7.047089157743964,-6.379050427318029,-2.9907568629176193,-2.025402305583721,-1.477593745317059,-10.591600292821997,-6.105515929892528,-0.7997284512704663,-1.6599015248012337,-1.0658606653710878,-12.37974301211499,-5.779057311149539,1.4677957721559913,-1.6663420528392812,-1.6729146950118752,-10.41483940758912,-3.8385633203321374,15.402542122169114,-0.41514557994139845,-2.912277491528296,-7.101840142331007,-6.786281374974041,-1.457727854813717,-1.914823184686922,-1.6025933774053176,-11.9769318910617,-5.625081989258618,4.295102305456441,-1.2309583398278652,-1.723781328255822,-11.011845089546176,-5.608465031626809,-0.24952057873166034,-1.4357892376567722,-1.2378846738036298,-10.468017886373906,-3.6036501314417633,18.0043325473956,-0.2583667368381683,-3.108646281954064,-7.035942346280478,-6.3555197006137565,-0.591675079891095,-1.7127385637958357,-1.4892979561886506,-11.563560232615167,-3.2896471219173913,16.609932785039916,-0.35613045224894085,-2.8735032865686967,-6.40214141203527,-3.2932812030127776,15.986904547011676,-0.21805139777480506,-2.748213413340095,-6.4214005446108935,-5.782743155470378,2.5164089328936345,-1.3960526439975434,-1.6232159187064945,-10.969965508786526,-3.82221397108916,18.274627592081778,-0.4750290964024841,-3.294130893227561,-7.253127325434625,-5.661379747335935,1.3186046893113783,-1.4896072652612,-1.5311046858367878,-10.405205802695548,-3.6681351227473344,17.75865132785046,-0.304066092126272,-3.193815332625065,-6.778399070148117,-6.480266323176181,-2.371264467963451,-2.010336927887905,-1.360280390809617,-11.665007600408648,-5.1357863799219405,0.38568821402381825,-1.6241731743487007,-0.970583870373326,-10.771063087188326,-6.637866933900918,-4.880100599563484,-1.7915371959549966,-0.6943293128017165,-13.071481507860238,-3.050657913194797,16.93457885737893,-0.1407399315669148,-2.7151731414471234,-6.363615069672502,-5.807470637951249,1.3537178043367462,-1.6628202417472022,-1.638590237649617,-10.5580574143899,-4.040109778426269,18.48964441027141,-0.28557296486071515,-3.311796846177409,-7.722820894769644,-5.288979894641594,2.749781976449098,-1.695694318935864,-1.7050454946398188,-9.71995747974017,-6.627163794056711,-2.328291890618269,-1.8087526739151456,-1.0904467605844395,-12.960408612384708,-5.298311948361203,3.478118376219294,-1.3827368715931887,-1.6696107644178964,-10.012723502358426,-5.560319141154139,5.7140364906548635,-1.1080415798542114,-1.8751913311138926,-10.939399400974242,-5.83697719407865,-0.8672523065446285,-1.8778229953520995,-1.4801621162556313,-10.189593329343657,-5.312813251238723,4.376706985814835,-1.3469156665262862,-1.8647713057115871,-9.766435979441903,-4.379961946037215,5.438379861703035,-0.985611251995175,-1.5116688367090787,-8.899544171863806,-5.0806670076914955,5.61746695165604,-1.0429609633050954,-1.7477837364881867,-10.025601403896529,-4.922954078254284,5.72451892545296,-1.0100770135030195,-1.772758049114293,-9.531614016034396,-3.314625471065665,17.801607050109407,-0.09366601016873788,-2.984716530531958,-6.472804788511765,-4.61579403390528,5.246233056599474,-1.0192765463746274,-1.5789576296270982,-9.195504848606586,-5.101067603672744,-0.17673392341469452,-1.7803489233058203,-1.3126201948638299,-9.158493292314542,-7.096979923427385,1.058088578682808,-1.9001455740682336,-1.8020382894134337,-13.45732962605736,-5.700019253740994,-0.8567530166602921,-1.788674256985682,-1.3169940061239622,-10.382803238016223,-4.133875232285789,18.867887444264063,-0.3368473147005637,-3.5507079259067194,-7.302691537508529,-7.356672358024082,-1.034751576334676,-2.191481660553521,-1.6966349148540103,-13.647186296333045,-4.905096551080284,4.2757055882323804,-1.2611946777296086,-1.4663083275201307,-10.088631371079593,-4.970448678138094,4.768026590044279,-1.3159908386615362,-1.739543864611699,-9.5252840070177,-4.811868612948644,4.137076342484164,-1.2740100832156358,-1.576451690817239,-9.3371007070851,-3.917176180725276,19.889261280544073,-0.4804073022041053,-3.5601205027715843,-7.3930498135700535,-7.418815601001912,-2.081572706053212,-2.1967629495504766,-1.8032380028188046,-12.805406298029379,-3.9432244422538005,6.126320964480505,-0.8811876192870776,-1.5450973260148053,-7.882676658670347,-3.288502129366246,17.04518352933616,-0.26981624191956616,-2.922015853677203,-6.37795653526051,-4.818269639387179,2.153017645070646,-0.9887551686235393,-1.1378054579394703,-9.681423060165876,-2.7302888987359157,14.133536230728264,-0.007263548740141651,-2.2223563447314287,-5.708815835565531,-3.5752368046400536,18.11841051521484,-0.2618885479302476,-3.1429707393163215,-6.892724339479699,-4.285640778579881,7.406642759016948,-0.7799020927842255,-1.745915864037914,-8.659695599716333,-4.46042285279581,6.154424940569789,-1.0268106628636986,-1.582497904959413,-9.28575418291576,-5.7819883384306126,4.180190869339706,-1.6386395200887025,-2.0761261976677217,-10.3632830771266,-6.802205527201613,-2.1676429551677074,-2.042533594634944,-1.5126622980614284,-12.084818209624231,-5.950682264510939,0.3480772209442886,-1.7315253966161808,-1.4184553837298206,-11.298332325168555,-4.942313208135292,3.708851592210239,-1.3967300544391656,-1.5372892684448844,-9.712054964921215,-6.793072576923956,-2.21325536007741,-1.9584693565153595,-1.5683448563802695,-11.738756689257311,-5.220192789930349,3.5632132075259344,-1.3819555270158124,-1.57734765887377,-10.21075021347778,-6.809525452617838,-1.7420580324582993,-1.6341651313190695,-1.3376736485274472,-12.659203443397256,-3.2287962117072055,16.232585766556817,-0.1723520424867015,-2.6630443626690936,-6.678943820743255,-6.58886269993758,-0.5960443912626587,-1.9707971229787993,-1.6333640552267648,-11.864446653557085,-5.316248228892158,3.070954752926097,-1.6058582975144104,-1.7192336043860672,-9.838990609766189,-4.110547282209527,5.574352424800499,-0.6783315264320284,-1.2481092296377043,-8.99941903385503,-5.363352653264587,0.8859312253675942,-1.5828710362523926,-1.281621708030753,-10.415158155634654,-5.2579381704516654,4.177471639476887,-1.0654762685810577,-1.50758847128959,-10.646734242896816,-4.8343061103272245,3.844886702519765,-1.3681492603065455,-1.688851143977375,-8.87682285913895,-3.0449599405705747,15.58321421958049,-0.3156183244354534,-2.6253179984404444,-6.090108179629867,-5.617320125105561,0.9693447918313254,-1.4426360710908073,-1.418781169013862,-10.48409044203653,-6.1489680752996385,0.2243959787502643,-1.684648263968128,-1.575751192328939,-11.105013474743636,-3.928746456321723,18.07545479295589,-0.4722886298877814,-3.3520695414094286,-7.198318621116051,-3.3328396083955276,16.22119046116293,-0.3940048407755094,-2.7977603169710563,-6.62906086062382,-3.5163980227332514,18.043814973792536,-0.17352115414120678,-3.072065734728778,-6.887907537032913,-4.6734878232609365,5.7560793423180225,-1.0213297298342936,-1.698375201323149,-9.17613677427861,-4.4787843303421715,3.585090947717921,-1.0623381623758124,-1.3401984225722077,-8.85284778865737,-5.570267463958583,4.826009718155719,-1.3334129779852226,-1.9319841622923974,-10.443789864789846,-4.86489710351875,0.4585230883049256,-1.2855721881382314,-0.9165247870163105,-9.98089713907871,-5.647971673784108,-1.6868760633462916,-1.7439530350250791,-1.2118404805113698,-10.13981123376505,-3.1515441890285905,17.055682819220497,-0.1806675035531489,-2.7588477435455334,-6.571166443933076,-5.3164990955595615,5.425320146552477,-1.076626257684549,-1.8150725294062064,-10.321562080639309,-3.5880038360130966,17.540994682096308,-0.20787373157569572,-2.9619983077688796,-7.258044992422241,-4.076407536503587,15.513146794126348,-0.5442218902940505,-3.119120203758376,-7.116181607919015,-4.192991870991498,17.76923002003309,-0.5024321131751546,-3.38503387696519,-7.637497304659609,-5.779976210127229,3.8774393922789123,-1.5432285041155036,-1.9365722783556616,-10.64490228828137,-4.002063224160603,6.20091650590281,-0.9695550130761179,-1.6160023306023488,-7.887493461117135,-2.938149598539105,16.95563998435966,-0.24114138626460593,-2.803958403787649,-5.814927919244148,-6.264963130834216,0.5692240176466878,-1.7109790858909584,-1.4170193255861143,-12.262122224118055,-3.696548449549044,17.644573360031213,-0.30054428103419273,-3.159490875262807,-6.921617076948895,-3.5039088481591145,17.44797784125779,-0.30475337518130846,-3.0164591127471474,-6.8525758487946655,-4.13708411636577,20.4070295757945,-0.38636218663553606,-3.7173403750334937,-7.581124171750302,-3.5204222793400186,18.649317927914122,-0.36434318608760496,-3.3511735733528973,-6.324669114723372,-3.2319533325617344,16.100086499321364,-0.354077268789275,-2.7540857148726468,-6.421509486363246,-4.2790756702034205,5.317275899861467,-0.9456836800089405,-1.467994234610669,-8.691992797603232,-6.292127938633877,-2.452886003408082,-1.8855637732047084,-1.2800252414859217,-11.30942141690051,-6.426847657094695,0.07875759406595861,-1.669873736544775,-1.6158095827578252,-11.603708723300201,-4.634008171235142,3.6658164676529914,-1.3196153769813996,-1.3920014160661962,-9.351760920718641,-6.625133467883393,-0.04492364812806038,-1.6229966038967214,-1.7731053913569441,-11.410389872875282,-3.7553639145104025,4.871446463382594,-0.833631869289432,-1.228263123162037,-7.857079439866502,-4.003482400324594,20.967753593303872,-0.08191698910943201,-3.6654614452022956,-7.463604248294196,-3.7758643637564955,18.79586918319422,-0.2554294815733415,-3.278832510621648,-7.283642211226086,-5.1522728209713415,5.11464665995981,-1.077313540739585,-1.6377163095282883,-10.395738859285856,-6.138430473541863,-0.7988324357609091,-1.5273974648788422,-1.094312821200795,-12.236416063561858,-5.847835623599214,1.5958631808078145,-1.4639764542891454,-1.3108179592425717,-11.908267130684532,-3.185603725229069,16.621328090433803,-0.1344776539601325,-2.7387873322667335,-6.452024372154707,-5.108439292314421,1.9204923980605901,-1.2397701056223442,-1.2132226422530688,-10.268745494709352,-3.801068806478223,17.14264908384454,-0.20239279854629055,-3.0778756041326156,-7.148427583785092,-5.568255335655199,4.523258241094926,-1.238001962012024,-1.7924302429803378,-10.725409075944619,-4.646974306050137,3.771124629394947,-0.868578875164588,-1.2312768126156728,-9.663786075912519,-4.623730228406339,4.055454807039537,-1.14923692853244,-1.4961965414935439,-8.98151452357696,-6.1708162937248865,-1.9790488482244548,-1.8469080401007631,-1.2635051055394357,-11.280528679431313,-5.402606211716928,5.821088464451784,-1.0751576300521357,-1.9001656437399987,-10.445412013112112,-5.014508300368469,5.1172864875243285,-1.3629620328319292,-1.8518673814346251,-9.446399367676715,-5.659923332630365,-1.330652719055978,-1.5486310586591019,-0.9183926594665829,-11.346802943258904,-4.868139552954249,6.255426338152239,-1.112531651660377,-1.9809608831508683,-8.963558791278068,-5.053398673440932,5.296294175179041,-1.1327969847265493,-1.733595626741938,-9.906568273870512,-6.279134813687378,0.9694241941296262,-1.730150830506107,-1.773167823485657,-11.149978767875456,-6.540171344277173,-0.875942710323617,-1.7107794418585096,-1.6394997099146449,-11.31072481717724,-3.9775851521986296,17.36643570811146,-0.46749497991341293,-3.290590617895247,-7.162877991125452,-5.700019253740994,-0.8567530166602921,-1.788674256985682,-1.3169940061239622,-10.382803238016223,-3.4166567394506036,17.487460267654725,-0.21990779248434694,-2.979878565521861,-6.704541039547101,-3.7622301966312133,18.635282794955714,-0.3003474922840685,-3.271738455748524,-7.224125646213077,-6.658993900641921,-1.1620023717752463,-1.9738284397659651,-1.7327971519812257,-11.344543298845576,-5.355416458763527,2.0767094749275277,-1.4529106540945804,-1.3643827961643076,-10.629148480664277,-3.6340755865468557,18.19300605663715,-0.35025594171928837,-3.213875743903865,-6.897541141926487,-3.5559046648905492,16.606459489177904,-0.4816849515095134,-3.0460215414365175,-6.559700884424057,-6.9559547555190795,-2.150055124048988,-2.268489548593208,-1.7739658152697761,-11.693690531584664,-6.7914506241319526,-1.2874756449883744,-2.1919594269626943,-1.8331886489209304,-11.437878345526919,-5.9103690420884245,1.7775732432391074,-1.7981588297066353,-1.8218187590600867,-10.483989577495702,-5.308788994631956,3.771204031693248,-1.156093634579888,-1.585663467087468,-10.329674401751443,-3.1515441890285905,17.055682819220497,-0.1806675035531489,-2.7588477435455334,-6.571166443933076,-3.2475996279903994,16.56342436462066,-0.4045702740517469,-2.9007336890578306,-6.199406840221484,-7.063910090101693,-3.9577316331244,-2.42928069709343,-1.546812842814064,-11.993055668745145,-4.883196569429583,4.807509016441216,-1.2311452559645746,-1.702963317386414,-9.377249197770134,-4.921609982261188,5.477045674888714,-1.3207844886359048,-1.8010227881258807,-9.560724637008299,-4.109174739936421,16.502960213541293,-0.6765291614663175,-3.2029156284143854,-7.562017125736327,-4.142984865618003,6.065777411102837,-0.8656317472863477,-1.492892610899565,-8.579398618346268,-6.389319577885262,-2.438896562575499,-1.6796763635624932,-0.8836040483543598,-12.9460671467967,-3.761311297653522,16.225639174832793,-0.42346104100784654,-3.0080808724047365,-6.994062765520828,-3.4914196735849767,16.852140708723045,-0.43598559622141025,-2.9608524907655163,-6.8172441605564185,-5.81138257584554,-0.4425633993447775,-1.6019585919586161,-1.2767213108919433,-10.907305511669815,-5.2778865792860055,4.073059493244487,-1.3840087104754786,-1.6967652305698206,-10.191382139149805,-5.865720140904718,-0.4829418412512645,-1.8193082345779685,-1.2848497022875214,-11.198667269470512,-6.455538840695311,-1.208573339406568,-1.743569330138246,-1.344906071866494,-12.076915694805276,-3.1026537299262316,16.093060505299043,-0.3176715078951195,-2.7447355701364944,-6.070740105301893,-3.5175430152843967,17.608564229496288,-0.2598353644705815,-3.0235531676202716,-6.912092413807674]},"inputs_cnt":5,"units":5,"weights":{"v":1,"dim":[5,5],"data":[0.10619046016023387,-0.13634167125282093,-0.7247294903208401,-0.14779159676427117,-1.2131164490899027,6.413845888872101,1.5256099552206253,2.2715301966920967,-2.828440218453589,-4.820300736033713,-0.37512042556738096,0.4491801071072691,-0.43449383078313725,-0.4139619961864773,-0.3865573310394513,-0.5980257590659886,-0.07094054873124273,-0.7799905946066787,0.41418512235382315,-0.1652013594648583,-0.37610600275625194,-0.5951656501300859,-0.643333674597953,-0.8370144178777017,-0.2889273746919585]},"optimizer":{"RMSProp":{"learning_rate":0.1,"epsilon":1e-8,"rho":0.9,"e_gradient":{"v":1,"dim":[5,5],"data":[3.9927683634408776e-50,1.390783825580273e-48,2.398162835749576e-49,7.207119169657965e-49,5.959493948725964e-50,0.008371170645469444,0.3362149261780408,0.07059141668833291,0.20611639183514965,0.02282853993974679,5.4643100415516823e-48,1.6360778031798662e-46,5.905862367645787e-47,3.917534476612672e-47,3.291346829169513e-48,4.226850817608286e-48,1.7002597460743156e-46,3.854479613218584e-47,1.0317018788080934e-46,1.31417469754959e-47,0.0,0.0,0.0,0.0,0.0]},"velocity":{"v":1,"dim":[5,5],"data":[0.0,0.0,0.0,0.0,0.0,0.0,0.0,0.0,0.0,0.0,0.0,0.0,0.0,0.0,0.0,0.0,0.0,0.0,0.0,0.0,0.0,0.0,0.0,0.0,0.0]}}},"activation_fn":"Relu"},{"type":"dense","input":{"v":1,"dim":[149,6],"data":[1.0,0.0,16.14659491974062,0.0,0.0,0.0,1.0,0.0,17.055682819220497,0.0,0.0,0.0,1.0,0.0,7.107427125030223,0.0,0.0,0.0,1.0,0.0,0.0,0.0,0.0,0.0,1.0,0.0,0.42267276236659335,0.0,0.0,0.0,1.0,0.0,16.02814764054981,0.0,0.0,0.0,1.0,0.0,19.976227545168115,0.0,0.0,0.0,1.0,0.0,19.03542042422659,0.0,0.0,0.0,1.0,0.0,0.0,0.0,0.0,0.0,1.0,0.0,0.0,0.0,0.0,0.0,1.0,0.0,1.4677957721559913,0.0,0.0,0.0,1.0,0.0,15.402542122169114,0.0,0.0,0.0,1.0,0.0,0.0,0.0,0.0,0.0,1.0,0.0,4.295102305456441,0.0,0.0,0.0,1.0,0.0,0.0,0.0,0.0,0.0,1.0,0.0,18.0043325473956,0.0,0.0,0.0,1.0,0.0,0.0,0.0,0.0,0.0,1.0,0.0,16.609932785039916,0.0,0.0,0.0,1.0,0.0,15.986904547011676,0.0,0.0,0.0,1.0,0.0,2.5164089328936345,0.0,0.0,0.0,1.0,0.0,18.274627592081778,0.0,0.0,0.0,1.0,0.0,1.3186046893113783,0.0,0.0,0.0,1.0,0.0,17.75865132785046,0.0,0.0,0.0,1.0,0.0,0.0,0.0,0.0,0.0,1.0,0.0,0.38568821402381825,0.0,0.0,0.0,1.0,0.0,0.0,0.0,0.0,0.0,1.0,0.0,16.93457885737893,0.0,0.0,0.0,1.0,0.0,1.3537178043367462,0.0,0.0,0.0,1.0,0.0,18.48964441027141,0.0,0.0,0.0,1.0,0.0,2.749781976449098,0.0,0.0,0.0,1.0,0.0,0.0,0.0,0.0,0.0,1.0,0.0,3.478118376219294,0.0,0.0,0.0,1.0,0.0,5.7140364906548635,0.0,0.0,0.0,1.0,0.0,0.0,0.0,0.0,0.0,1.0,0.0,4.376706985814835,0.0,0.0,0.0,1.0,0.0,5.438379861703035,0.0,0.0,0.0,1.0,0.0,5.61746695165604,0.0,0.0,0.0,1.0,0.0,5.72451892545296,0.0,0.0,0.0,1.0,0.0,17.801607050109407,0.0,0.0,0.0,1.0,0.0,5.246233056599474,0.0,0.0,0.0,1.0,0.0,0.0,0.0,0.0,0.0,1.0,0.0,1.058088578682808,0.0,0.0,0.0,1.0,0.0,0.0,0.0,0.0,0.0,1.0,0.0,18.867887444264063,0.0,0.0,0.0,1.0,0.0,0.0,0.0,0.0,0.0,1.0,0.0,4.2757055882323804,0.0,0.0,0.0,1.0,0.0,4.768026590044279,0.0,0.0,0.0,1.0,0.0,4.137076342484164,0.0,0.0,0.0,1.0,0.0,19.889261280544073,0.0,0.0,0.0,1.0,0.0,0.0,0.0,0.0,0.0,1.0,0.0,6.126320964480505,0.0,0.0,0.0,1.0,0.0,17.04518352933616,0.0,0.0,0.0,1.0,0.0,2.153017645070646,0.0,0.0,0.0,1.0,0.0,14.133536230728264,0.0,0.0,0.0,1.0,0.0,18.11841051521484,0.0,0.0,0.0,1.0,0.0,7.406642759016948,0.0,0.0,0.0,1.0,0.0,6.154424940569789,0.0,0.0,0.0,1.0,0.0,4.180190869339706,0.0,0.0,0.0,1.0,0.0,0.0,0.0,0.0,0.0,1.0,0.0,0.3480772209442886,0.0,0.0,0.0,1.0,0.0,3.708851592210239,0.0,0.0,0.0,1.0,0.0,0.0,0.0,0.0,0.0,1.0,0.0,3.5632132075259344,0.0,0.0,0.0,1.0,0.0,0.0,0.0,0.0,0.0,1.0,0.0,16.232585766556817,0.0,0.0,0.0,1.0,0.0,0.0,0.0,0.0,0.0,1.0,0.0,3.070954752926097,0.0,0.0,0.0,1.0,0.0,5.574352424800499,0.0,0.0,0.0,1.0,0.0,0.8859312253675942,0.0,0.0,0.0,1.0,0.0,4.177471639476887,0.0,0.0,0.0,1.0,0.0,3.844886702519765,0.0,0.0,0.0,1.0,0.0,15.58321421958049,0.0,0.0,0.0,1.0,0.0,0.9693447918313254,0.0,0.0,0.0,1.0,0.0,0.2243959787502643,0.0,0.0,0.0,1.0,0.0,18.07545479295589,0.0,0.0,0.0,1.0,0.0,16.22119046116293,0.0,0.0,0.0,1.0,0.0,18.043814973792536,0.0,0.0,0.0,1.0,0.0,5.7560793423180225,0.0,0.0,0.0,1.0,0.0,3.585090947717921,0.0,0.0,0.0,1.0,0.0,4.826009718155719,0.0,0.0,0.0,1.0,0.0,0.4585230883049256,0.0,0.0,0.0,1.0,0.0,0.0,0.0,0.0,0.0,1.0,0.0,17.055682819220497,0.0,0.0,0.0,1.0,0.0,5.425320146552477,0.0,0.0,0.0,1.0,0.0,17.540994682096308,0.0,0.0,0.0,1.0,0.0,15.513146794126348,0.0,0.0,0.0,1.0,0.0,17.76923002003309,0.0,0.0,0.0,1.0,0.0,3.8774393922789123,0.0,0.0,0.0,1.0,0.0,6.20091650590281,0.0,0.0,0.0,1.0,0.0,16.95563998435966,0.0,0.0,0.0,1.0,0.0,0.5692240176466878,0.0,0.0,0.0,1.0,0.0,17.644573360031213,0.0,0.0,0.0,1.0,0.0,17.44797784125779,0.0,0.0,0.0,1.0,0.0,20.4070295757945,0.0,0.0,0.0,1.0,0.0,18.649317927914122,0.0,0.0,0.0,1.0,0.0,16.100086499321364,0.0,0.0,0.0,1.0,0.0,5.317275899861467,0.0,0.0,0.0,1.0,0.0,0.0,0.0,0.0,0.0,1.0,0.0,0.07875759406595861,0.0,0.0,0.0,1.0,0.0,3.6658164676529914,0.0,0.0,0.0,1.0,0.0,0.0,0.0,0.0,0.0,1.0,0.0,4.871446463382594,0.0,0.0,0.0,1.0,0.0,20.967753593303872,0.0,0.0,0.0,1.0,0.0,18.79586918319422,0.0,0.0,0.0,1.0,0.0,5.11464665995981,0.0,0.0,0.0,1.0,0.0,0.0,0.0,0.0,0.0,1.0,0.0,1.5958631808078145,0.0,0.0,0.0,1.0,0.0,16.621328090433803,0.0,0.0,0.0,1.0,0.0,1.9204923980605901,0.0,0.0,0.0,1.0,0.0,17.14264908384454,0.0,0.0,0.0,1.0,0.0,4.523258241094926,0.0,0.0,0.0,1.0,0.0,3.771124629394947,0.0,0.0,0.0,1.0,0.0,4.055454807039537,0.0,0.0,0.0,1.0,0.0,0.0,0.0,0.0,0.0,1.0,0.0,5.821088464451784,0.0,0.0,0.0,1.0,0.0,5.1172864875243285,0.0,0.0,0.0,1.0,0.0,0.0,0.0,0.0,0.0,1.0,0.0,6.255426338152239,0.0,0.0,0.0,1.0,0.0,5.296294175179041,0.0,0.0,0.0,1.0,0.0,0.9694241941296262,0.0,0.0,0.0,1.0,0.0,0.0,0.0,0.0,0.0,1.0,0.0,17.36643570811146,0.0,0.0,0.0,1.0,0.0,0.0,0.0,0.0,0.0,1.0,0.0,17.487460267654725,0.0,0.0,0.0,1.0,0.0,18.635282794955714,0.0,0.0,0.0,1.0,0.0,0.0,0.0,0.0,0.0,1.0,0.0,2.0767094749275277,0.0,0.0,0.0,1.0,0.0,18.19300605663715,0.0,0.0,0.0,1.0,0.0,16.606459489177904,0.0,0.0,0.0,1.0,0.0,0.0,0.0,0.0,0.0,1.0,0.0,0.0,0.0,0.0,0.0,1.0,0.0,1.7775732432391074,0.0,0.0,0.0,1.0,0.0,3.771204031693248,0.0,0.0,0.0,1.0,0.0,17.055682819220497,0.0,0.0,0.0,1.0,0.0,16.56342436462066,0.0,0.0,0.0,1.0,0.0,0.0,0.0,0.0,0.0,1.0,0.0,4.807509016441216,0.0,0.0,0.0,1.0,0.0,5.477045674888714,0.0,0.0,0.0,1.0,0.0,16.502960213541293,0.0,0.0,0.0,1.0,0.0,6.065777411102837,0.0,0.0,0.0,1.0,0.0,0.0,0.0,0.0,0.0,1.0,0.0,16.225639174832793,0.0,0.0,0.0,1.0,0.0,16.852140708723045,0.0,0.0,0.0,1.0,0.0,0.0,0.0,0.0,0.0,1.0,0.0,4.073059493244487,0.0,0.0,0.0,1.0,0.0,0.0,0.0,0.0,0.0,1.0,0.0,0.0,0.0,0.0,0.0,1.0,0.0,16.093060505299043,0.0,0.0,0.0,1.0,0.0,17.608564229496288,0.0,0.0,0.0]},"output":{"v":1,"dim":[149,3],"data":[0.24006391880983813,-12.585571840122924,-54.08463605026145,1.5032866461653178,-13.343331667805174,-57.37592550017377,-12.320308077331422,-5.051076843071954,-21.358958350955433,-22.19643059804457,0.8732377986787878,4.372986740400875,-21.609105830042395,0.5209237487831313,2.8427294304769513,0.07547554935419143,-12.486841464412926,-53.655805922179695,5.561528402750145,-15.777718342117476,-67.94955435389414,4.254230243890952,-14.993519319938471,-64.54342767095311,-22.19643059804457,0.8732377986787878,4.372986740400875,-22.19643059804457,0.8732377986787878,4.372986740400875,-20.1568555695302,-0.35022659020815383,-0.9410656656281633,-0.7938343486541903,-11.965375135275282,-51.39084469716353,-22.19643059804457,0.8732377986787878,4.372986740400875,-16.228172906270498,-2.706895634757542,-11.177132134056531,-22.19643059804457,0.8732377986787878,4.372986740400875,2.8214824967711998,-14.134067805602255,-60.81044579660636,-22.19643059804457,0.8732377986787878,4.372986740400875,0.8838948643381137,-12.971781821763567,-55.762118534273135,0.018166225213334997,-12.452463755205246,-53.50648817334432,-18.6997555711629,-1.2242861046297142,-4.737496610259183,3.1970708680766613,-14.359369150611853,-61.7890301881137,-20.364163979064543,-0.22587006836604906,-0.4009297367829907,2.4800962563522084,-13.929283033201473,-59.9209740454224,-22.19643059804457,0.8732377986787878,4.372986740400875,-21.660497694409198,0.5517517963186462,2.976629412909885,-22.19643059804457,0.8732377986787878,4.372986740400875,1.3350066843942017,-13.24238684463768,-56.9374770375116,-20.315372564115922,-0.2551382040504344,-0.5280543251783172,3.4958474018488133,-14.538593961758696,-62.56748360902728,-18.375472151770726,-1.4188115376174901,-5.58240746716035,-22.19643059804457,0.8732377986787878,4.372986740400875,-17.36341259858959,-2.0259080187172165,-8.219298696184826,-14.256493476382804,-3.889632006326872,-16.314284566220085,-22.19643059804457,0.8732377986787878,4.372986740400875,-16.114779155296272,-2.7749162833238925,-11.472576198025173,-14.639532034961547,-3.6598615740358724,-15.316288932149241,-14.390681640699315,-3.809137570890023,-15.964661273388256,-14.241927613298989,-3.898369520037967,-16.35223549162577,2.5397853630475247,-13.96508828450394,-60.07649224730929,-14.906529551191202,-3.4996998008913023,-14.620634801417182,-22.19643059804457,0.8732377986787878,4.372986740400875,-20.72616403645894,-0.008719842066369443,0.5422507047723029,-22.19643059804457,0.8732377986787878,4.372986740400875,4.021434858547757,-14.853874119402715,-63.936886180544406,-22.19643059804457,0.8732377986787878,4.372986740400875,-16.25512560693623,-2.6907277228210678,-11.10690766973465,-15.571021155651565,-3.1010962666228057,-12.889321581701623,-16.44775781995489,-2.575174899568233,-10.605010136788213,5.440684464502638,-15.705228606269726,-67.634699047362,-22.19643059804457,0.8732377986787878,4.372986740400875,-13.683603750570459,-4.233287017047979,-17.806931800707915,1.4886973621031565,-13.334580104729598,-57.337913552101796,-19.2047057899081,-0.9213854502490708,-3.4218637517796617,-2.5571809778781045,-10.907609779278191,-46.79649721463134,2.9799994913569208,-14.229156191759971,-61.22345713705619,-11.904533112723087,-5.300484614728951,-22.442247722591308,-13.644551881828889,-4.2567127650870695,-17.9086802895572,-16.387848046395856,-2.611112520627043,-10.761103279661189,-22.19643059804457,0.8732377986787878,4.372986740400875,-21.712760034809563,0.5831020097041821,3.1127973948995313,-17.042797350534542,-2.218233053611975,-9.054652241171866,-22.19643059804457,0.8732377986787878,4.372986740400875,-17.245169109760262,-2.0968378427138425,-8.527378608679374,-22.19643059804457,0.8732377986787878,4.372986740400875,0.3595524656323299,-12.657248527606027,-54.395959924528285,-22.19643059804457,0.8732377986787878,4.372986740400875,-17.929186648591408,-1.6865214344258,-6.7451911445391675,-14.450591414258348,-3.7731999498312145,-15.808568130515283,-20.965385217945975,0.13477995202065618,1.1655344169583035,-16.391626551164848,-2.6088459376558504,-10.751258497254007,-16.853769817377827,-2.3316235649210126,-9.547157887364676,-0.5427815079117124,-12.11597229697963,-52.0449554475583,-20.8494779300071,0.0652515271168791,0.863541406778856,-21.884621255464285,0.6861950954509969,3.5605767216490607,2.9203103846616045,-14.193350940457506,-61.067938935169295,0.3437181235770126,-12.647750101043977,-54.354704014684046,2.87634528658975,-14.166977930838922,-60.95338917263361,-14.198072848658992,-3.9246763447783826,-16.466497783668423,-17.214768904621124,-2.1150737829869906,-8.606585443929305,-15.490450723160446,-3.1494274403094655,-13.099245460278471,-21.559290023964333,0.49104111936860945,2.7129358212954195,-22.19643059804457,0.8732377986787878,4.372986740400875,1.5032866461653178,-13.343331667805174,-57.37592550017377,-14.657679156928975,-3.648975797745452,-15.26900714265619,2.1776515512429313,-13.747857823961613,-59.13296331259469,-0.640143670945232,-12.057568395367202,-51.791281211753734,2.494795873846229,-13.938100781155219,-59.9592734639874,-16.80853624033447,-2.3587574873905544,-9.665012634338922,-13.579949545803291,-4.29546527796903,-18.076999765130495,1.3642721649720428,-13.259942106302525,-57.0137273814823,-21.40546559184518,0.39876762503404356,2.312150813545906,2.3215792617664874,-13.834194647043754,-59.50796270497255,2.048400037235041,-13.670324699468734,-58.796202316115526,6.160149192213407,-16.13680845065306,-69.50924311359785,3.7177216744669757,-14.671687997311897,-63.14557046327815,0.17543816180589644,-12.546805277876485,-53.91625555202188,-14.807811996732664,-3.558916750868378,-14.877840469487069,-22.19643059804457,0.8732377986787878,4.372986740400875,-22.086993014690005,0.8075903063491305,4.0878503541415565,-17.10259679066172,-2.1823616174313356,-8.898846568791921,-22.19643059804457,0.8732377986787878,4.372986740400875,-15.427314111991725,-3.187300719948605,-13.263746033093408,6.939303026619484,-16.604193546338855,-71.53930538172058,3.9213619126641994,-14.793844121060989,-63.6761490802092,-15.089375376046135,-3.390017464012714,-14.144235413349328,-22.19643059804457,0.8732377986787878,4.372986740400875,-19.978899553027215,-0.4569757148717213,-1.404724802675874,0.899729206393431,-12.981280248325618,-55.803374444117374,-19.52781115394947,-0.7275666883813545,-2.580022283248055,1.6241305844128249,-13.415821403652924,-57.69078080670591,-15.91113891709906,-2.8970724070729768,-12.003154814956204,-16.956265876605364,-2.2701400319727396,-9.280107436887583,-16.561174991907457,-2.507140201637408,-10.309505050153305,-22.19643059804457,0.8732377986787878,4.372986740400875,-14.10773944898248,-3.9788639554748153,-16.7018587844576,-15.08570720470901,-3.3922178621057313,-14.153792725263457,-22.19643059804457,0.8732377986787878,4.372986740400875,-13.504205430188938,-4.34090132558989,-18.274348817847706,-14.836967143878635,-3.5414276740817137,-14.80187759600944,-20.849367596575235,0.06518534223870354,0.8632539362857985,-22.19643059804457,0.8732377986787878,4.372986740400875,1.9350931987143412,-13.602356186416083,-58.50098469997367,-22.19643059804457,0.8732377986787878,4.372986740400875,2.103262827053591,-13.7032348247054,-58.93914569214278,3.6982191610745296,-14.659989172656827,-63.09475724151977,-22.19643059804457,0.8732377986787878,4.372986740400875,-19.310739777229728,-0.8577796472332349,-3.145595334305561,3.0836536961240917,-14.291334452681026,-61.49352510147878,0.8790685474613475,-12.968886695697769,-55.7495437084135,-22.19643059804457,0.8732377986787878,4.372986740400875,-22.19643059804457,0.8732377986787878,4.372986740400875,-19.726404408406193,-0.6084380604544166,-2.062593433162756,-16.956155543173498,-2.270206216850915,-9.280394907380643,1.5032866461653178,-13.343331667805174,-57.37592550017377,0.819269107334172,-12.93301525951713,-55.59373803603356,-22.19643059804457,0.8732377986787878,4.372986740400875,-15.516158365833014,-3.1340063918594714,-13.032264957728877,-14.585803969704296,-3.6920910206642326,-15.45627581689726,0.7352511703696507,-12.882616057493797,-55.37483178652867,-13.76773202096685,-4.182821630146469,-17.587738080709958,-22.19643059804457,0.8732377986787878,4.372986740400875,0.3498998318787976,-12.651458275474427,-54.37081027280901,1.220454787880339,-13.173671468098549,-56.63901545959746,-22.19643059804457,0.8732377986787878,4.372986740400875,-16.536712407228045,-2.5218143866009255,-10.373241590930629,-22.19643059804457,0.8732377986787878,4.372986740400875,-22.19643059804457,0.8732377986787878,4.372986740400875,0.16567519462050484,-12.540948840866712,-53.890818429809556,2.2715427888247035,-13.804179647872889,-59.37759415480493]},"inputs_cnt":6,"units":3,"weights":{"v":1,"dim":[3,6],"data":[-22.212960647981696,0.6292734400903031,1.3306173835113049,-0.7855794227854643,0.32715770494949364,-0.7608059679543966,0.7886059217572996,0.7988720746543769,-0.913116720663706,-0.43623330943389316,0.904862155315526,0.30307870502188816,4.457627923305063,1.3096490147509798,-3.5408735130294606,-0.27472266320272604,0.26445367631521544,0.31591277231684334]},"optimizer":{"RMSProp":{"learning_rate":0.1,"epsilon":1e-8,"rho":0.9,"e_gradient":{"v":1,"dim":[3,6],"data":[2.914004102739447e-10,2.851832412300077e-51,1.9122835340577326e-8,4.276822484370158e-47,5.488702115812653e-46,0.0,0.0014028464416454983,2.0543815444288506e-51,0.0018274290390410148,1.96905569736249e-46,1.315524319712937e-46,0.0,0.0014040223209505001,6.52422048455146e-53,0.0018392337502351017,5.72273687481441e-47,1.9972846265282106e-46,0.0]},"velocity":{"v":1,"dim":[3,6],"data":[0.0,0.0,0.0,0.0,0.0,0.0,0.0,0.0,0.0,0.0,0.0,0.0,0.0,0.0,0.0,0.0,0.0,0.0]}}},"activation_fn":"Softmax"}],"optimizer":{"RMSProp":{"learning_rate":0.1,"epsilon":1e-8,"rho":0.9,"e_gradient":{"v":1,"dim":[1,0],"data":[]},"velocity":{"v":1,"dim":[1,0],"data":[]}}},"loss_fn":"CrossEntropy"}