{"layers":[{"type":"dense","input":{"v":1,"dim":[1,0],"data":[]},"output":{"v":1,"dim":[1,0],"data":[]},"inputs_cnt":5,"units":10,"weights":{"v":1,"dim":[10,5],"data":[0.7543682518746204,-0.7545759742986684,-0.6236919144544082,0.39281602962320883,-0.45035019683355215,0.9679509582007182,-0.37483952067953763,0.7673490886554903,0.9938161240053545,-0.3182474871701617,0.43590750483147467,0.8114189622012931,-0.1777935133018711,-0.8673325271085632,-0.3760426725900612,0.06829272664125985,0.3571882867779066,0.8211780078421596,-0.5483450813655579,-0.35055624285245335,0.20009723626002618,0.44533307074944917,-0.6440007399325205,0.012864926877590666,0.6159346503062808,-0.7234962467277439,-0.3140504924691703,0.8531279020390163,-0.5058866276960619,0.556603445892305,-0.6130281588101416,-0.48562751100961776,-0.5107108723619906,-0.7558529890525172,-0.8844220520032589,-0.7212825058612895,0.5966307701187084,-0.2566975331065362,0.2610810409426778,-0.5617977783713,0.21383442645626882,-0.6554652377615,0.27032416492538713,0.9510695433740237,0.9723643606612988,-0.7913139775932212,0.7766447484374484,0.07253746131141758,0.13955632499887027,0.10077673071505533]},"optimizer":{"Adam":{"learning_rate":0.1,"epsilon":1e-8,"b1":0.9,"b2":0.999,"m":{"v":1,"dim":[1,0],"data":[]},"v":{"v":1,"dim":[1,0],"data":[]},"t":1,"velocity":{"v":1,"dim":[1,0],"data":[]}}},"activation_fn":"Softmax"},{"type":"dense","input":{"v":1,"dim":[1,0],"data":[]},"output":{"v":1,"dim":[1,0],"data":[]},"inputs_cnt":11,"units":3,"weights":{"v":1,"dim":[3,11],"data":[0.9918204513587541,0.21912261835752966,-0.29477055020775667,-0.05756020798070938,-0.09054594695451934,0.2701161714311344,-0.3667147741005523,-0.09476356100082461,0.42078808842208626,0.9201144560011241,-0.35914622422671294,0.18277455403999165,0.16298662077731718,0.7887391297777473,-0.966974052450724,0.46804533320231867,0.5082177679132598,-0.5437928507873526,-0.36334061269708506,-0.039778554401701305,0.5606160788132271,-0.33220100424730514,0.5759052586138482,-0.6157763675362873,-0.19258682732694576,0.0010095279694921633,-0.012588396465213814,0.9179107954330115,-0.5954860542513314,-0.09469655371998598,0.9547064620565364,0.7990406096811713,-0.3303349302547549]},"optimizer":{"Adam":{"learning_rate":0.1,"epsilon":1e-8,"b1":0.9,"b2":0.999,"m":{"v":1,"dim":[1,0],"data":[]},"v":{"v":1,"dim":[1,0],"data":[]},"t":1,"velocity":{"v":1,"dim":[1,0],"data":[]}}},"activation_fn":"Softmax"}],"optimizer":{"Adam":{"learning_rate":0.1,"epsilon":1e-8,"b1":0.9,"b2":0.999,"m":{"v":1,"dim":[1,0],"data":[]},"v":{"v":1,"dim":[1,0],"data":[]},"t":1,"velocity":{"v":1,"dim":[1,0],"data":[]}}},"loss_fn":"CrossEntropy"}