{"layers":[{"type":"dense","input":{"v":1,"dim":[101,14],"data":[1.0,0.38735,0.0,25.65,0.0,0.581,5.613,95.6,1.7572,2.0,188.0,19.1,359.29,27.26,1.0,0.07896,0.0,12.83,0.0,0.437,6.273,6.0,4.2515,5.0,398.0,18.7,394.92,6.78,1.0,0.43571,0.0,10.59,1.0,0.489,5.344,100.0,3.875,4.0,277.0,18.6,396.9,23.09,1.0,0.1712,0.0,8.56,0.0,0.52,5.836,91.9,2.211,5.0,384.0,20.9,395.67,18.66,1.0,0.02731,0.0,7.07,0.0,0.469,6.421,78.9,4.9671,2.0,242.0,17.8,396.9,9.14,1.0,0.05059,0.0,4.49,0.0,0.449,6.389,48.0,4.7794,3.0,247.0,18.5,396.9,9.62,1.0,15.1772,0.0,18.1,0.0,0.74,6.152,100.0,1.9142,24.0,666.0,20.2,9.32,26.45,1.0,0.13117,0.0,8.56,0.0,0.52,6.127,85.2,2.1224,5.0,384.0,20.9,387.69,14.09,1.0,0.14866,0.0,8.56,0.0,0.52,6.727,79.9,2.7778,5.0,384.0,20.9,394.76,9.42,1.0,3.8497,0.0,18.1,1.0,0.77,6.395,91.0,2.5052,24.0,666.0,20.2,391.34,13.27,1.0,0.22927,0.0,6.91,0.0,0.448,6.03,85.5,5.6894,3.0,233.0,17.9,392.74,18.8,1.0,0.31533,0.0,6.2,0.0,0.504,8.266,78.3,2.8944,8.0,307.0,17.4,385.05,4.14,1.0,5.29305,0.0,18.1,0.0,0.7,6.051,82.5,2.1678,24.0,666.0,20.2,378.38,18.76,1.0,0.19539,0.0,10.81,0.0,0.413,6.245,6.2,5.2873,4.0,305.0,19.2,377.17,7.54,1.0,7.36711,0.0,18.1,0.0,0.679,6.193,78.1,1.9356,24.0,666.0,20.2,96.73,21.52,1.0,0.04113,25.0,4.86,0.0,0.426,6.727,33.5,5.4007,4.0,281.0,19.0,396.9,5.29,1.0,0.17331,0.0,9.69,0.0,0.585,5.707,54.0,2.3817,6.0,391.0,19.2,396.9,12.01,1.0,0.14476,0.0,10.01,0.0,0.547,5.731,65.2,2.7592,6.0,432.0,17.8,391.5,13.61,1.0,0.1415,0.0,6.91,0.0,0.448,6.169,6.6,5.7209,3.0,233.0,17.9,383.37,5.81,1.0,0.62356,0.0,6.2,1.0,0.507,6.879,77.7,3.2721,8.0,307.0,17.4,390.39,9.93,1.0,0.01778,95.0,1.47,0.0,0.403,7.135,13.9,7.6534,3.0,402.0,17.0,384.3,4.45,1.0,0.59005,0.0,21.89,0.0,0.624,6.372,97.9,2.3274,4.0,437.0,21.2,385.76,11.12,1.0,2.37934,0.0,19.58,0.0,0.871,6.13,100.0,1.4191,5.0,403.0,14.7,172.91,27.8,1.0,0.09299,0.0,25.65,0.0,0.581,5.961,92.9,2.0869,2.0,188.0,19.1,378.09,17.93,1.0,0.01501,90.0,1.21,1.0,0.401,7.923,24.8,5.885,1.0,198.0,13.6,395.52,3.16,1.0,20.7162,0.0,18.1,0.0,0.659,4.138,100.0,1.1781,24.0,666.0,20.2,370.22,23.34,1.0,0.65665,20.0,3.97,0.0,0.647,6.842,100.0,2.0107,5.0,264.0,13.0,391.93,6.9,1.0,12.0482,0.0,18.1,0.0,0.614,5.648,87.6,1.9512,24.0,666.0,20.2,291.55,14.1,1.0,0.13262,0.0,8.56,0.0,0.52,5.851,96.7,2.1069,5.0,384.0,20.9,394.05,16.47,1.0,0.17899,0.0,9.69,0.0,0.585,5.67,28.8,2.7986,6.0,391.0,19.2,393.29,17.6,1.0,0.26838,0.0,9.69,0.0,0.585,5.794,70.6,2.8927,6.0,391.0,19.2,396.9,14.1,1.0,0.04297,52.5,5.32,0.0,0.405,6.565,22.9,7.3172,6.0,293.0,16.6,371.72,9.51,1.0,0.12579,45.0,3.44,0.0,0.437,6.556,29.1,4.5667,5.0,398.0,15.2,382.84,4.56,1.0,0.26363,0.0,8.56,0.0,0.52,6.229,91.2,2.5451,5.0,384.0,20.9,391.23,15.55,1.0,8.79212,0.0,18.1,0.0,0.584,5.565,70.6,2.0635,24.0,666.0,20.2,3.65,17.16,1.0,0.37578,0.0,10.59,1.0,0.489,5.404,88.6,3.665,4.0,277.0,18.6,395.24,23.98,1.0,0.03961,0.0,5.19,0.0,0.515,6.037,34.5,5.9853,5.0,224.0,20.2,396.9,8.01,1.0,4.0974,0.0,19.58,0.0,0.871,5.468,100.0,1.4118,5.0,403.0,14.7,396.9,26.42,1.0,0.15086,0.0,27.74,0.0,0.609,5.454,92.7,1.8209,4.0,711.0,20.1,395.09,18.06,1.0,0.13587,0.0,10.59,1.0,0.489,6.064,59.1,4.2392,4.0,277.0,18.6,381.32,14.66,1.0,0.06664,0.0,4.05,0.0,0.51,6.546,33.1,3.1323,5.0,296.0,16.6,390.96,5.33,1.0,0.08187,0.0,2.89,0.0,0.445,7.82,36.9,3.4952,2.0,276.0,18.0,393.53,3.57,1.0,2.73397,0.0,19.58,0.0,0.871,5.597,94.9,1.5257,5.0,403.0,14.7,351.85,21.45,1.0,0.16902,0.0,25.65,0.0,0.581,5.986,88.4,1.9929,2.0,188.0,19.1,385.02,14.81,1.0,13.0751,0.0,18.1,0.0,0.58,5.713,56.7,2.8237,24.0,666.0,20.2,396.9,14.76,1.0,0.0795,60.0,1.69,0.0,0.411,6.579,35.9,10.7103,4.0,411.0,18.3,370.78,5.49,1.0,0.07978,40.0,6.41,0.0,0.447,6.482,32.1,4.1403,4.0,254.0,17.6,396.9,7.19,1.0,11.5779,0.0,18.1,0.0,0.7,5.036,97.0,1.77,24.0,666.0,20.2,396.9,25.68,1.0,0.14231,0.0,10.01,0.0,0.547,6.254,84.2,2.2565,6.0,432.0,17.8,388.74,10.45,1.0,0.55778,0.0,21.89,0.0,0.624,6.335,98.2,2.1107,4.0,437.0,21.2,394.67,16.96,1.0,0.23912,0.0,9.69,0.0,0.585,6.019,65.3,2.4091,6.0,391.0,19.2,396.9,12.92,1.0,2.37857,0.0,18.1,0.0,0.583,5.871,41.9,3.724,24.0,666.0,20.2,370.73,13.34,1.0,8.20058,0.0,18.1,0.0,0.713,5.936,80.3,2.7792,24.0,666.0,20.2,3.5,16.94,1.0,0.32543,0.0,21.89,0.0,0.624,6.431,98.8,1.8125,4.0,437.0,21.2,396.9,15.39,1.0,0.57529,0.0,6.2,0.0,0.507,8.337,73.3,3.8384,8.0,307.0,17.4,385.91,2.47,1.0,0.21038,20.0,3.33,0.0,0.4429,6.812,32.2,4.1007,5.0,216.0,14.9,396.9,4.85,1.0,23.6482,0.0,18.1,0.0,0.671,6.38,96.2,1.3861,24.0,666.0,20.2,396.9,23.69,1.0,0.09604,40.0,6.41,0.0,0.447,6.854,42.8,4.2673,4.0,254.0,17.6,396.9,2.98,1.0,1.27346,0.0,19.58,1.0,0.605,6.25,92.6,1.7984,5.0,403.0,14.7,338.92,5.5,1.0,5.70818,0.0,18.1,0.0,0.532,6.75,74.9,3.3317,24.0,666.0,20.2,393.07,7.74,1.0,0.5405,20.0,3.97,0.0,0.575,7.47,52.6,2.872,5.0,264.0,13.0,390.3,3.16,1.0,0.7857,20.0,3.97,0.0,0.647,7.014,84.6,2.1329,5.0,264.0,13.0,384.07,14.79,1.0,0.21977,0.0,6.91,0.0,0.448,5.602,62.0,6.0877,3.0,233.0,17.9,396.9,16.2,1.0,0.08707,0.0,12.83,0.0,0.437,6.14,45.8,4.0905,5.0,398.0,18.7,386.96,10.27,1.0,2.33099,0.0,19.58,0.0,0.871,5.186,93.8,1.5296,5.0,403.0,14.7,356.99,28.32,1.0,0.15876,0.0,10.81,0.0,0.413,5.961,17.5,5.2873,4.0,305.0,19.2,376.94,9.88,1.0,6.53876,0.0,18.1,1.0,0.631,7.016,97.5,1.2024,24.0,666.0,20.2,392.05,2.96,1.0,0.02729,0.0,7.07,0.0,0.469,7.185,61.1,4.9671,2.0,242.0,17.8,392.83,4.03,1.0,0.27957,0.0,9.69,0.0,0.585,5.926,42.6,2.3817,6.0,391.0,19.2,396.9,13.59,1.0,0.11069,0.0,13.89,1.0,0.55,5.951,93.8,2.8893,5.0,276.0,16.4,396.9,17.92,1.0,7.83932,0.0,18.1,0.0,0.655,6.209,65.4,2.9634,24.0,666.0,20.2,396.9,13.22,1.0,3.67367,0.0,18.1,0.0,0.583,6.312,51.9,3.9917,24.0,666.0,20.2,388.62,10.58,1.0,0.03237,0.0,2.18,0.0,0.458,6.998,45.8,6.0622,3.0,222.0,18.7,394.63,2.94,1.0,2.24236,0.0,19.58,0.0,0.605,5.854,91.8,2.422,5.0,403.0,14.7,395.11,11.64,1.0,1.42502,0.0,19.58,0.0,0.871,6.51,100.0,1.7659,5.0,403.0,14.7,364.31,7.39,1.0,0.03584,80.0,3.37,0.0,0.398,6.29,17.8,6.6115,4.0,337.0,16.1,396.9,4.67,1.0,0.22438,0.0,9.69,0.0,0.585,6.027,79.7,2.4982,6.0,391.0,19.2,396.9,14.33,1.0,0.06127,40.0,6.41,1.0,0.447,6.826,27.6,4.8628,4.0,254.0,17.6,393.45,4.16,1.0,0.15098,0.0,10.01,0.0,0.547,6.021,82.6,2.7474,6.0,432.0,17.8,394.51,10.3,1.0,0.32264,0.0,21.89,0.0,0.624,5.942,93.5,1.9669,4.0,437.0,21.2,378.25,16.9,1.0,0.08199,0.0,13.92,0.0,0.437,6.009,42.3,5.5027,4.0,289.0,16.0,396.9,10.4,1.0,3.69695,0.0,18.1,0.0,0.718,4.963,91.4,1.7523,24.0,666.0,20.2,316.03,14.0,1.0,0.12816,12.5,6.07,0.0,0.409,5.885,33.0,6.498,4.0,345.0,18.9,396.9,8.79,1.0,0.17446,0.0,10.59,1.0,0.489,5.96,92.1,3.8771,4.0,277.0,18.6,393.25,17.27,1.0,0.41238,0.0,6.2,0.0,0.504,7.163,79.9,3.2157,8.0,307.0,17.4,372.08,6.36,1.0,0.44178,0.0,6.2,0.0,0.504,6.552,21.4,3.3751,8.0,307.0,17.4,380.34,3.76,1.0,18.811,0.0,18.1,0.0,0.597,4.628,100.0,1.5539,24.0,666.0,20.2,28.79,34.37,1.0,1.19294,0.0,21.89,0.0,0.624,6.326,97.7,2.271,4.0,437.0,21.2,396.9,12.26,1.0,0.1396,0.0,8.56,0.0,0.52,6.167,90.0,2.421,5.0,384.0,20.9,392.69,12.33,1.0,19.6091,0.0,18.1,0.0,0.671,7.313,97.9,1.3163,24.0,666.0,20.2,396.9,13.44,1.0,0.08244,30.0,4.93,0.0,0.428,6.481,18.5,6.1899,6.0,300.0,16.6,379.41,6.36,1.0,0.36894,22.0,5.86,0.0,0.431,8.259,8.4,8.9067,7.0,330.0,19.1,396.9,3.54,1.0,0.63796,0.0,8.14,0.0,0.538,6.096,84.5,4.4619,4.0,307.0,21.0,380.02,10.26,1.0,0.06888,0.0,2.46,0.0,0.488,6.144,62.2,2.5979,3.0,193.0,17.8,396.9,9.45,1.0,12.2472,0.0,18.1,0.0,0.584,5.837,59.7,1.9976,24.0,666.0,20.2,24.65,15.69,1.0,0.2498,0.0,21.89,0.0,0.624,5.857,98.2,1.6686,4.0,437.0,21.2,392.04,21.32,1.0,0.88125,0.0,21.89,0.0,0.624,5.637,94.7,1.9799,4.0,437.0,21.2,396.9,18.34,1.0,15.8603,0.0,18.1,0.0,0.679,5.896,95.4,1.9096,24.0,666.0,20.2,7.68,24.39,1.0,0.19186,0.0,7.38,0.0,0.493,6.431,14.7,5.4159,5.0,287.0,19.6,393.68,5.08,1.0,0.52014,20.0,3.97,0.0,0.647,8.398,91.5,2.2885,5.0,264.0,13.0,386.86,5.91,1.0,28.6558,0.0,18.1,0.0,0.597,5.155,100.0,1.5894,24.0,666.0,20.2,210.97,20.08]},"output":{"v":1,"dim":[101,5],"data":[6637.199241647843,-2771.253078823061,-82772.36908058169,-8672.620372225572,-897.9151569748319,10112.236508146016,-3775.0843883107377,-118666.4177146612,-13162.142558722842,-1309.2561635636155,8413.429148893496,-3346.075589621737,-102403.48127739913,-10960.882569469899,-1138.4870458734194,10103.260044681785,-3785.0361997122186,-119478.68383740966,-13092.6953290771,-1387.0142738610052,7785.553646619102,-3169.752007221944,-95813.54722588733,-10196.163159813863,-1023.809066893759,7789.497468930223,-3172.7707044057042,-95566.03861515185,-10224.814032946884,-991.8454213348776,11132.25969828196,-2965.764468320112,-114419.78551092673,-13915.923616879487,-1799.4412194651152,10011.06467341118,-3734.084951584153,-118150.2575083099,-12974.030679688041,-1372.4051385651317,10061.762600312826,-3762.763036146021,-118885.41475018169,-13051.798442255926,-1371.8822695763286,14642.203852134657,-4947.4526630870705,-165170.5898805914,-18774.478567544655,-2084.031724626192,7622.816770933592,-3124.1436501947364,-94073.36824933198,-9979.740159361154,-1006.3173519308536,8728.925764609414,-3374.9582120635114,-104833.64470794552,-11362.476470140948,-1172.6202024989334,14505.036706684661,-4880.1029317158445,-163182.1657568495,-18590.143021378586,-2062.0141121611728,8445.854117993465,-3288.1781468916297,-101042.73965473815,-11052.965630555489,-1067.4338675806332,11881.252615674677,-3405.5658470328735,-125333.76624839703,-14976.817660951598,-1835.693455450154,8311.11439940586,-3321.9989048300536,-100641.84994463707,-10904.358019364205,-1062.2702469218775,10135.62615093178,-3790.2199517085505,-119444.13808016313,-13159.474243599994,-1355.1884940092384,10774.309152038468,-3944.683136977424,-125826.97371858326,-13945.235241790046,-1465.7939940559243,7338.367062926892,-3013.043177283099,-90028.85927603248,-9671.308650715804,-893.6621259852919,8778.806646902452,-3409.5341592617847,-105564.24035488302,-11430.883080467422,-1174.7873231839667,10116.164695429217,-3810.134770319468,-118119.53052250584,-13206.790877753958,-1333.4940494457628,10890.372904960888,-3953.469696779349,-127099.85245138379,-14058.256746909845,-1530.063505961029,8380.946602878783,-2711.8408838932064,-93136.20147976658,-10644.173476811096,-1276.5896765237908,6801.043412667792,-2857.832735555513,-85135.10337388734,-8906.041806548188,-910.6618647766604,6958.196644997851,-3001.3896955125956,-86507.90179139345,-9232.9099880415,-855.8870060580747,14488.684561736203,-4851.480302211955,-162732.74227864857,-18538.42157340891,-2084.29521832663,8157.087795313177,-3259.2478771645738,-99419.22473768987,-10639.801370392419,-1102.3151763879175,13715.454892263431,-4422.699848178522,-151703.6241050087,-17495.45970318337,-2004.3244359930595,10099.010248570028,-3777.03342212931,-119411.32549158689,-13083.100172723647,-1392.6205428541055,10042.837780030048,-3762.308351957656,-118135.30568979177,-13054.158565534311,-1317.1827342505105,10176.688601124055,-3802.6632659602897,-120027.10878025829,-13199.563521174163,-1377.7276017123847,8260.051231240468,-3258.6205674842495,-98909.32396103072,-10827.712628770863,-1063.3808317647479,10063.358349742939,-3756.1299066052784,-117755.7975089144,-13094.98785406777,-1332.2704226198498,10059.061854000724,-3757.918942566484,-118840.08911571148,-13034.107227344357,-1383.3485393816554,10997.523110510534,-2908.9107763293105,-112582.25488347212,-13769.15267161202,-1753.8410461223145,8370.743868384672,-3331.3896768461977,-101796.78489280393,-10912.306129572566,-1121.369394488432,7387.687275706814,-3064.982090035715,-91345.80076796358,-9734.330784603719,-919.8146962186622,10462.60596197126,-3882.988485056245,-123124.42718404936,-13511.982675315796,-1452.8795696866694,15386.784215148535,-5172.570383092992,-173167.73890214297,-19711.562288705285,-2201.4152334850323,8165.4625805716705,-3230.415157858957,-98860.57272920244,-10663.355743571756,-1072.0930000213946,8489.648992649327,-3334.8087353798437,-102248.48915347077,-11102.888804587445,-1085.7101672031015,8194.129090956047,-3264.8516706910154,-99431.95863979217,-10736.419056073071,-1043.6304791482632,10028.265823229833,-3638.749847603404,-116881.82280562817,-12922.168190182541,-1411.0353460172887,6853.319606621865,-2887.9268641920803,-85888.13564160897,-8983.765961387051,-910.4959547697995,14619.711775443606,-4956.316870790698,-164759.7381773253,-18771.60885308147,-2045.3332433028197,10175.011717396783,-3767.426466999954,-118533.19526594503,-13242.025519038363,-1369.0825344700468,7882.443916385516,-3218.52489614792,-96191.13220779959,-10366.819669833834,-997.8233796340103,14721.243367926172,-4992.895401751527,-166210.54917395263,-18866.63109715441,-2097.3542932421915,10794.11336184267,-3937.9861119073994,-126087.81850089516,-13954.004290599003,-1489.9259625700315,10976.396010122486,-4006.657221814964,-128342.6373644709,-14173.151348970223,-1536.3035146181237,10163.675357633552,-3797.9672733185957,-119838.031225159,-13186.231116976343,-1370.5018697739076,14328.979907093777,-4810.227121191767,-160726.9525709276,-18395.04362156694,-2000.9905191006399,11018.79901445805,-2914.0214828947446,-112893.23581943534,-13790.333765778823,-1767.2173744287902,10997.918629252159,-4016.8931890476224,-128651.15240685943,-14202.497528726137,-1538.929279553132,8723.746137559323,-3374.8046618053663,-104766.8417900865,-11362.524037995603,-1167.2978213234383,7261.143659686194,-3038.623359063596,-89890.98353886546,-9574.849057276755,-897.7577868747775,14731.143402305861,-4988.29658473023,-166186.1027215123,-18871.291355336136,-2101.4058330225153,7906.815239988474,-3220.310606393639,-96530.00880701054,-10391.844174852835,-1013.254624879809,9894.342790102542,-3552.1446018918796,-114962.80976679845,-12748.464276431634,-1399.575413559363,14618.343862630432,-4940.231455222638,-164816.69721495986,-18760.184419957117,-2065.680544608681,8024.659322131701,-3217.900133173664,-97553.52435859051,-10506.280157568319,-1037.3656327386666,8050.012999294146,-3217.3869831689362,-97892.94105516413,-10503.184473544643,-1073.8763655367675,7602.7666019897615,-3129.0758926907856,-93807.20641443664,-9977.642637718049,-978.1224037300377,10136.621778499799,-3761.336006750641,-118986.75777930307,-13155.073916461008,-1356.6086737889277,10075.626992397047,-3672.6950640644473,-117577.53124214392,-12985.805150408989,-1412.1487665072655,8472.026127654053,-3296.471695211002,-101414.08848206504,-11077.22475695732,-1082.213778653156,14664.007935673,-4942.835811819227,-165422.78945842048,-18798.395029925116,-2095.7144463209893,7702.636244568389,-3131.8342931965963,-94626.01445509709,-10100.86457688482,-997.3103146952564,10108.747459807586,-3784.9702066151085,-119064.95370406173,-13132.377901649532,-1339.420080440508,8386.604921132295,-3330.7844195800785,-102002.10756348034,-10924.055583751488,-1130.3018456154814,14635.231042258674,-4960.461482480751,-165042.57882420134,-18788.47078556024,-2055.5254020207726,14519.644602665407,-4906.70688253555,-163449.09009296584,-18648.36277989681,-2029.8036720304879,7354.383318060818,-3046.2183404222137,-91028.63825788644,-9684.06074093801,-925.9420137342717,10417.493678588839,-3852.5832166637583,-122502.66614126875,-13468.014986771184,-1442.3868665956602,10149.516998997253,-3691.601295552903,-118630.77581479416,-13091.512366499763,-1429.8886540589558,9194.308206407506,-3590.20199287857,-109282.94438448477,-12048.691954849945,-1187.80165587627,10199.227440540582,-3808.2567712711657,-120340.7342442033,-13220.62483995314,-1389.925461110655,7837.700406333585,-3194.6614747607946,-95554.83612886879,-10311.723658385665,-989.50279945778,10843.36030145574,-3967.260088944153,-126804.29218927145,-14024.682908225173,-1492.4894592034216,10812.091513483749,-3917.887272028536,-125981.15898972932,-13951.85803036907,-1516.8568170176288,8464.776238671942,-3347.4223870924916,-102314.13832093352,-11065.125522708853,-1094.1781814303947,13943.725117550548,-4554.267318503236,-155100.7280020808,-17812.504238534082,-2025.2755727806484,9337.71608552654,-3589.2248712261353,-111137.52016605137,-12188.871864848268,-1215.7063242696922,8357.881559781397,-3315.649106191799,-101605.85529983793,-10894.38840350989,-1125.8292894186857,8612.679248801122,-3310.862464624054,-103164.24564767668,-11201.661108057266,-1164.3464098867719,8545.68078573032,-3316.049807441646,-102248.09070117469,-11168.753474434563,-1091.523057294045,11319.5419732312,-3076.1891474058657,-117081.30798560093,-14168.763502690788,-1814.3417348423968,10994.458410253232,-4012.8485998526853,-128593.15258587494,-14200.788528651638,-1538.5277298331089,10068.29486839343,-3761.305883797535,-118972.5037887175,-13049.576975727161,-1383.3167827852606,14727.477756776369,-4978.261958515701,-166172.60390996787,-18871.207525429167,-2103.9506026200916,8423.77207018105,-3305.875822706352,-100895.09271530969,-11034.639513217873,-1075.2161118839854,9041.484005137716,-3510.4287375803533,-107819.2915176848,-11840.713332322995,-1150.4058963917096,8693.437449742267,-3362.5895408076262,-104447.15135270776,-11316.99618574121,-1179.1048266230355,6953.518202158141,-2950.8148194938713,-87176.779677996,-9161.894217533052,-876.582412419435,11169.034206700197,-3010.13986422983,-115015.83383070813,-14013.914070844088,-1757.0697835833812,10953.553108502683,-3997.7286400397306,-128018.43536323596,-14139.499496034174,-1533.11527500711,10989.27705697514,-4017.8613718456745,-128529.58316094677,-14194.070779138578,-1533.0506983468451,11105.523435458646,-2952.0764080458016,-114028.86155416301,-13884.500030288465,-1792.4451640443997,8326.410142130922,-3300.4619619712394,-100556.93172914174,-10920.235950036093,-1045.9500982392622,8089.247166850196,-3226.0965278620934,-98445.6497536243,-10553.656079596232,-1087.1150597841277,13015.88933136545,-4013.0062781575725,-141394.85751624557,-16505.326628996172,-1963.5772206448353]},"inputs_cnt":14,"units":5,"weights":{"v":1,"dim":[5,14],"data":[0.8324229181784403,0.9835570596205613,0.3877646354460902,1.1286413459710571,-0.15572894132782047,0.3053135811431952,0.4237455440943219,2.4328003958679565,-0.6314991095669195,1.4284306386329948,16.10586969632562,-0.3573827149830376,9.289790160019788,0.416405279360086,-0.7299223073524561,0.11624619243348057,-0.7314053977045523,0.0803309407301235,-0.15341661513484195,-0.8851141464514104,0.29893243173462186,-0.6056090920704312,-0.2664894076473244,0.41068971631949497,-4.256865313066835,-0.2654396673484754,-5.235341513505754,-1.096213341214155,-0.9218720629677768,-1.1248150378516508,-0.7286344595055677,-7.74624316545708,0.485754174551299,-1.140682989481987,-2.1378163463785853,-34.24857801830272,-0.09438847299710589,-2.0120623567354046,-163.92780942498734,-8.500575163815352,-133.9212520796468,-6.747916887012657,-0.25920801990971326,-0.669663508025704,-0.9448049103540501,-0.5351862519213982,0.486049150004257,-0.28967815686089554,0.7551698858037248,-2.377374016120586,-0.968096405907681,-1.442289155074022,-20.234906044374938,-1.4186831735087277,-12.79634410156882,-0.06325670502642468,-0.4300820851479906,-0.4043780818463854,-0.222465457414466,-0.882165783966645,0.3548243651848413,-0.9430170484645582,-0.07775429290018834,-1.3638807726496227,-0.43851833426163106,-0.17743439895385182,-2.4383628031483364,-0.38052722700006353,-0.7830935144140562,0.17732288965007856]},"optimizer":{"Momentum":{"learning_rate":0.1,"momentum":0.9,"velocity":{"v":1,"dim":[5,14],"data":[1.11599119707336e-231,1.7590251436217082e-230,2.5e-323,2.01112420324825e-230,-5.658960819686546e-233,7.536571499320833e-232,7.115775271459568e-231,1.1156917417970818e-229,1.721253388368613e-231,2.791606849730838e-230,7.589232729801453e-229,2.2870787376687145e-230,4.476079791915521e-229,2.3567897498728423e-230,-4.9175000236052264e-232,-2.4969646185598252e-232,-2.9007211790829743e-237,-1.0809663248504152e-230,-5.082788331117215e-235,-3.0760025393615866e-232,-2.933785159199783e-231,-4.6057109361962995e-230,-9.40550319333228e-232,-1.722497130278362e-231,-2.1207209861681237e-229,-1.0434046935295521e-230,-1.922024334339128e-229,-8.29333241928939e-231,-1.5477836627719008e-230,-7.411959329273343e-231,-8.585114304967785e-236,-3.366480220402812e-229,-1.5043265570389566e-233,-9.711354595397214e-231,-9.242769388116113e-230,-1.444286034012119e-228,-3.0818916027436596e-230,-7.314993518418219e-230,-6.891811872749104e-228,-3.274711780805057e-229,-5.667494789895311e-228,-2.603726081404369e-229,-1.403057896307137e-231,-2.2114996283837684e-230,1.971178319314116e-260,-2.52844619314388e-230,7.114616749259721e-233,-9.47520570138688e-232,-8.946167952849539e-231,-1.4026814120696358e-229,-2.1640118348908374e-231,-3.509692589123418e-230,-9.541412993559921e-229,-2.875384582581067e-230,-5.627462934200197e-229,-2.963027376193927e-230,-1.3375219532755309e-232,-5.59448834468022e-232,-2.5e-323,-2.4209147354287104e-231,3.676759006399344e-287,-8.703336872584746e-233,-7.952989018971269e-232,-1.1157040401166751e-230,-3.779945804823544e-232,-3.2100526878612586e-231,-8.907896208814978e-230,-2.701794345616562e-231,-2.985430033910765e-231,-2.2837327748096258e-231]}}},"activation_fn":"Softmax"},{"type":"dense","input":{"v":1,"dim":[101,6],"data":[1.0,1.0,0.0,0.0,0.0,0.0,1.0,1.0,0.0,0.0,0.0,0.0,1.0,1.0,0.0,0.0,0.0,0.0,1.0,1.0,0.0,0.0,0.0,0.0,1.0,1.0,0.0,0.0,0.0,0.0,1.0,1.0,0.0,0.0,0.0,0.0,1.0,1.0,0.0,0.0,0.0,0.0,1.0,1.0,0.0,0.0,0.0,0.0,1.0,1.0,0.0,0.0,0.0,0.0,1.0,1.0,0.0,0.0,0.0,0.0,1.0,1.0,0.0,0.0,0.0,0.0,1.0,1.0,0.0,0.0,0.0,0.0,1.0,1.0,0.0,0.0,0.0,0.0,1.0,1.0,0.0,0.0,0.0,0.0,1.0,1.0,0.0,0.0,0.0,0.0,1.0,1.0,0.0,0.0,0.0,0.0,1.0,1.0,0.0,0.0,0.0,0.0,1.0,1.0,0.0,0.0,0.0,0.0,1.0,1.0,0.0,0.0,0.0,0.0,1.0,1.0,0.0,0.0,0.0,0.0,1.0,1.0,0.0,0.0,0.0,0.0,1.0,1.0,0.0,0.0,0.0,0.0,1.0,1.0,0.0,0.0,0.0,0.0,1.0,1.0,0.0,0.0,0.0,0.0,1.0,1.0,0.0,0.0,0.0,0.0,1.0,1.0,0.0,0.0,0.0,0.0,1.0,1.0,0.0,0.0,0.0,0.0,1.0,1.0,0.0,0.0,0.0,0.0,1.0,1.0,0.0,0.0,0.0,0.0,1.0,1.0,0.0,0.0,0.0,0.0,1.0,1.0,0.0,0.0,0.0,0.0,1.0,1.0,0.0,0.0,0.0,0.0,1.0,1.0,0.0,0.0,0.0,0.0,1.0,1.0,0.0,0.0,0.0,0.0,1.0,1.0,0.0,0.0,0.0,0.0,1.0,1.0,0.0,0.0,0.0,0.0,1.0,1.0,0.0,0.0,0.0,0.0,1.0,1.0,0.0,0.0,0.0,0.0,1.0,1.0,0.0,0.0,0.0,0.0,1.0,1.0,0.0,0.0,0.0,0.0,1.0,1.0,0.0,0.0,0.0,0.0,1.0,1.0,0.0,0.0,0.0,0.0,1.0,1.0,0.0,0.0,0.0,0.0,1.0,1.0,0.0,0.0,0.0,0.0,1.0,1.0,0.0,0.0,0.0,0.0,1.0,1.0,0.0,0.0,0.0,0.0,1.0,1.0,0.0,0.0,0.0,0.0,1.0,1.0,0.0,0.0,0.0,0.0,1.0,1.0,0.0,0.0,0.0,0.0,1.0,1.0,0.0,0.0,0.0,0.0,1.0,1.0,0.0,0.0,0.0,0.0,1.0,1.0,0.0,0.0,0.0,0.0,1.0,1.0,0.0,0.0,0.0,0.0,1.0,1.0,0.0,0.0,0.0,0.0,1.0,1.0,0.0,0.0,0.0,0.0,1.0,1.0,0.0,0.0,0.0,0.0,1.0,1.0,0.0,0.0,0.0,0.0,1.0,1.0,0.0,0.0,0.0,0.0,1.0,1.0,0.0,0.0,0.0,0.0,1.0,1.0,0.0,0.0,0.0,0.0,1.0,1.0,0.0,0.0,0.0,0.0,1.0,1.0,0.0,0.0,0.0,0.0,1.0,1.0,0.0,0.0,0.0,0.0,1.0,1.0,0.0,0.0,0.0,0.0,1.0,1.0,0.0,0.0,0.0,0.0,1.0,1.0,0.0,0.0,0.0,0.0,1.0,1.0,0.0,0.0,0.0,0.0,1.0,1.0,0.0,0.0,0.0,0.0,1.0,1.0,0.0,0.0,0.0,0.0,1.0,1.0,0.0,0.0,0.0,0.0,1.0,1.0,0.0,0.0,0.0,0.0,1.0,1.0,0.0,0.0,0.0,0.0,1.0,1.0,0.0,0.0,0.0,0.0,1.0,1.0,0.0,0.0,0.0,0.0,1.0,1.0,0.0,0.0,0.0,0.0,1.0,1.0,0.0,0.0,0.0,0.0,1.0,1.0,0.0,0.0,0.0,0.0,1.0,1.0,0.0,0.0,0.0,0.0,1.0,1.0,0.0,0.0,0.0,0.0,1.0,1.0,0.0,0.0,0.0,0.0,1.0,1.0,0.0,0.0,0.0,0.0,1.0,1.0,0.0,0.0,0.0,0.0,1.0,1.0,0.0,0.0,0.0,0.0,1.0,1.0,0.0,0.0,0.0,0.0,1.0,1.0,0.0,0.0,0.0,0.0,1.0,1.0,0.0,0.0,0.0,0.0,1.0,1.0,0.0,0.0,0.0,0.0,1.0,1.0,0.0,0.0,0.0,0.0,1.0,1.0,0.0,0.0,0.0,0.0,1.0,1.0,0.0,0.0,0.0,0.0,1.0,1.0,0.0,0.0,0.0,0.0,1.0,1.0,0.0,0.0,0.0,0.0,1.0,1.0,0.0,0.0,0.0,0.0,1.0,1.0,0.0,0.0,0.0,0.0,1.0,1.0,0.0,0.0,0.0,0.0,1.0,1.0,0.0,0.0,0.0,0.0,1.0,1.0,0.0,0.0,0.0,0.0,1.0,1.0,0.0,0.0,0.0,0.0,1.0,1.0,0.0,0.0,0.0,0.0,1.0,1.0,0.0,0.0,0.0,0.0,1.0,1.0,0.0,0.0,0.0,0.0]},"output":{"v":1,"dim":[101,1],"data":[22.762082680805854,22.762082680805854,22.762082680805854,22.762082680805854,22.762082680805854,22.762082680805854,22.762082680805854,22.762082680805854,22.762082680805854,22.762082680805854,22.762082680805854,22.762082680805854,22.762082680805854,22.762082680805854,22.762082680805854,22.762082680805854,22.762082680805854,22.762082680805854,22.762082680805854,22.762082680805854,22.762082680805854,22.762082680805854,22.762082680805854,22.762082680805854,22.762082680805854,22.762082680805854,22.762082680805854,22.762082680805854,22.762082680805854,22.762082680805854,22.762082680805854,22.762082680805854,22.762082680805854,22.762082680805854,22.762082680805854,22.762082680805854,22.762082680805854,22.762082680805854,22.762082680805854,22.762082680805854,22.762082680805854,22.762082680805854,22.762082680805854,22.762082680805854,22.762082680805854,22.762082680805854,22.762082680805854,22.762082680805854,22.762082680805854,22.762082680805854,22.762082680805854,22.762082680805854,22.762082680805854,22.762082680805854,22.762082680805854,22.762082680805854,22.762082680805854,22.762082680805854,22.762082680805854,22.762082680805854,22.762082680805854,22.762082680805854,22.762082680805854,22.762082680805854,22.762082680805854,22.762082680805854,22.762082680805854,22.762082680805854,22.762082680805854,22.762082680805854,22.762082680805854,22.762082680805854,22.762082680805854,22.762082680805854,22.762082680805854,22.762082680805854,22.762082680805854,22.762082680805854,22.762082680805854,22.762082680805854,22.762082680805854,22.762082680805854,22.762082680805854,22.762082680805854,22.762082680805854,22.762082680805854,22.762082680805854,22.762082680805854,22.762082680805854,22.762082680805854,22.762082680805854,22.762082680805854,22.762082680805854,22.762082680805854,22.762082680805854,22.762082680805854,22.762082680805854,22.762082680805854,22.762082680805854,22.762082680805854,22.762082680805854]},"inputs_cnt":6,"units":1,"weights":{"v":1,"dim":[1,6],"data":[9.52444708981562,13.537990083807163,0.16594357871225165,-5.249216797488607,0.6934317398448886,-0.4264642865037907]},"optimizer":{"Momentum":{"learning_rate":0.1,"momentum":0.9,"velocity":{"v":1,"dim":[1,6],"data":[0.15017724640846433,0.15017724640846433,-2.0556800799174292e-230,-9.518754317403522e-229,-8.04301886654891e-231,4.921533769962437e-232]}}},"activation_fn":"Linear"}],"optimizer":{"Momentum":{"learning_rate":0.1,"momentum":0.9,"velocity":{"v":1,"dim":[1,0],"data":[]}}},"loss_fn":"MeanSquare"}